{"learner":{"attributes":{"best_iteration":"145","best_score":"0.5208018555513843","scikit_learn":"{\"_estimator_type\": \"classifier\"}"},"feature_names":[],"feature_types":[],"gradient_booster":{"model":{"gbtree_model_param":{"num_parallel_tree":"1","num_trees":"176"},"iteration_indptr":[0,1,2,3,4,5,6,7,8,9,10,11,12,13,14,15,16,17,18,19,20,21,22,23,24,25,26,27,28,29,30,31,32,33,34,35,36,37,38,39,40,41,42,43,44,45,46,47,48,49,50,51,52,53,54,55,56,57,58,59,60,61,62,63,64,65,66,67,68,69,70,71,72,73,74,75,76,77,78,79,80,81,82,83,84,85,86,87,88,89,90,91,92,93,94,95,96,97,98,99,100,101,102,103,104,105,106,107,108,109,110,111,112,113,114,115,116,117,118,119,120,121,122,123,124,125,126,127,128,129,130,131,132,133,134,135,136,137,138,139,140,141,142,143,144,145,146,147,148,149,150,151,152,153,154,155,156,157,158,159,160,161,162,163,164,165,166,167,168,169,170,171,172,173,174,175,176],"tree_info":[0,0,0,0,0,0,0,0,0,0,0,0,0,0,0,0,0,0,0,0,0,0,0,0,0,0,0,0,0,0,0,0,0,0,0,0,0,0,0,0,0,0,0,0,0,0,0,0,0,0,0,0,0,0,0,0,0,0,0,0,0,0,0,0,0,0,0,0,0,0,0,0,0,0,0,0,0,0,0,0,0,0,0,0,0,0,0,0,0,0,0,0,0,0,0,0,0,0,0,0,0,0,0,0,0,0,0,0,0,0,0,0,0,0,0,0,0,0,0,0,0,0,0,0,0,0,0,0,0,0,0,0,0,0,0,0,0,0,0,0,0,0,0,0,0,0,0,0,0,0,0,0,0,0,0,0,0,0,0,0,0,0,0,0,0,0,0,0,0,0,0,0,0,0,0,0],"trees":[{"base_weights":[-4.8997553E-8,-3.267211E-1,1.4378995E0,5.2770203E-1,-6.212004E-1,1.53416E0,-1.1820793E0,6.644554E-1,-1.8105946E0,-9.4295996E-1,2.144937E-2,4.0184295E-1,1.6519197E0,-1.4281515E0,3.746019E-1,9.672299E-1,3.0644816E-1,-1.899547E0,8.2036036E-1,-1.2300885E0,-4.316496E-1,-4.8827776E-1,1.250707E0,7.9228634E-1,-8.9672667E-1,1.7895235E0,1.234054E0,-8.944891E-1,-1.9788359E-1,1.3296667E0,-1.7999999E-1,1.001434E0,-1.9529413E-1,5.0358295E-1,-7.376907E-1,-1.9945578E-1,6.725785E-1,-1.5555556E-1,1.8012613E-1,-1.7663288E0,-1.1002606E0,-5.8220435E-2,-1.0782491E0,2.2653545E-1,-8.1597126E-1,1.3738556E0,-9.6426815E-1,1.0193388E0,-1.9416058E-1,-1.9763313E-1,9.548549E-1,1.7961665E0,-1.7575757E-1,1.6290736E0,7.9431474E-1,-2.4021482E-1,-1.9477125E-1,-1.5E-1,1.8451767E-1,4.4538293E-2,1.1717766E-1,1.8396154E-1,3.4534704E-2,1.2702003E-2,-1.19930625E-1,-1.6190477E-1,1.8012613E-1,-1.7857715E-1,6.267004E-2,-7.177082E-2,-1.4398131E-1,1.6543437E-2,-7.005005E-2,-1.1852858E-1,4.5388173E-2,3.2324467E-2,-1.969112E-1,-1.1631252E-1,-1.34822745E-2,1.4692122E-1,-6.960083E-2,-1.9669423E-1,3.347524E-2,-1.1678659E-2,1.3697825E-1,1.6073991E-1,-1.7999999E-1,1.7996119E-1,-1.5789475E-1,1.6776098E-1,-1.8095239E-1,-1.9310345E-1,9.2022054E-2,-1.925926E-1,9.983864E-2],"categories":[],"categories_nodes":[],"categories_segments":[],"categories_sizes":[],"default_left":[0,0,0,0,0,0,0,0,0,0,0,0,0,0,0,0,0,0,0,0,0,0,0,0,0,0,0,0,0,0,0,0,0,0,0,0,0,0,0,0,0,0,0,0,0,0,0,0,0,0,0,0,0,0,0,0,0,0,0,0,0,0,0,0,0,0,0,0,0,0,0,0,0,0,0,0,0,0,0,0,0,0,0,0,0,0,0,0,0,0,0,0,0,0,0],"id":0,"left_children":[1,3,5,7,9,11,13,15,17,19,21,23,25,27,29,31,33,35,37,39,41,43,45,47,49,51,53,55,-1,57,-1,59,-1,61,63,-1,65,-1,-1,67,69,71,73,75,77,79,81,83,-1,-1,85,87,-1,89,91,93,-1,-1,-1,-1,-1,-1,-1,-1,-1,-1,-1,-1,-1,-1,-1,-1,-1,-1,-1,-1,-1,-1,-1,-1,-1,-1,-1,-1,-1,-1,-1,-1,-1,-1,-1,-1,-1,-1,-1],"loss_changes":[1.6002291E4,6.9839604E3,1.5923672E3,2.2762793E3,4.268361E3,8.1053613E2,8.6365265E1,7.2837573E2,9.362012E1,2.0188945E3,4.3164536E3,2.9194745E2,3.146289E2,5.515164E1,6.75597E1,3.6569067E2,6.346943E2,9.440466E1,3.4412136E1,6.1126855E2,1.1946965E3,1.1408462E3,5.52114E2,2.764428E2,2.682584E2,1.007793E2,2.3637769E2,6.857302E1,0E0,3.540947E1,0E0,3.4048242E2,0E0,5.475169E2,1.9567441E2,0E0,3.9938377E1,0E0,0E0,8.0921875E1,9.204424E2,4.5083798E2,2.9760034E2,3.258269E2,7.894341E2,3.786599E2,1.3994768E2,1.6296576E2,0E0,0E0,9.2334076E1,5.093164E1,0E0,1.2317102E2,2.2461832E2,1.3333755E2,0E0,0E0,0E0,0E0,0E0,0E0,0E0,0E0,0E0,0E0,0E0,0E0,0E0,0E0,0E0,0E0,0E0,0E0,0E0,0E0,0E0,0E0,0E0,0E0,0E0,0E0,0E0,0E0,0E0,0E0,0E0,0E0,0E0,0E0,0E0,0E0,0E0,0E0,0E0],"parents":[2147483647,0,0,1,1,2,2,3,3,4,4,5,5,6,6,7,7,8,8,9,9,10,10,11,11,12,12,13,13,14,14,15,15,16,16,17,17,18,18,19,19,20,20,21,21,22,22,23,23,24,24,25,25,26,26,27,27,29,29,31,31,33,33,34,34,36,36,39,39,40,40,41,41,42,42,43,43,44,44,45,45,46,46,47,47,50,50,51,51,53,53,54,54,55,55],"right_children":[2,4,6,8,10,12,14,16,18,20,22,24,26,28,30,32,34,36,38,40,42,44,46,48,50,52,54,56,-1,58,-1,60,-1,62,64,-1,66,-1,-1,68,70,72,74,76,78,80,82,84,-1,-1,86,88,-1,90,92,94,-1,-1,-1,-1,-1,-1,-1,-1,-1,-1,-1,-1,-1,-1,-1,-1,-1,-1,-1,-1,-1,-1,-1,-1,-1,-1,-1,-1,-1,-1,-1,-1,-1,-1,-1,-1,-1,-1,-1],"split_conditions":[-1.0710549E-1,-3.1285778E-1,-5.1945355E-2,-5.210789E-2,-1.1351276E-1,-1.2062141E-1,1.476072E0,-8.3839905E-1,2.0436063E0,-1.02189E-1,-1.23870544E-1,-5.146712E-1,2.9363468E0,-4.5116386E-1,3.6382598E-1,2.1249814E0,-1.4582375E-1,7.31697E-1,1.309005E-1,7.836525E-1,-1.4582375E-1,-1.1740073E0,4.2030057E-1,3.7466973E-1,4.1868335E-1,2.0015347E0,-2.906974E-1,1.6972178E0,-1.9788359E-1,-3.2332864E-1,-1.7999999E-1,-4.2548785E-1,-1.9529413E-1,-1.7765216E0,-1.3847423E0,-1.9945578E-1,1.5313524E0,-1.5555556E-1,1.8012613E-1,8.723413E0,-1.4582375E-1,-3.2046393E-1,1.5741501E0,1.159539E0,2.078883E0,1.4466494E-1,7.779338E-1,-4.5576006E-1,-1.9416058E-1,-1.9763313E-1,3.6382598E-1,2.3165731E0,-1.7575757E-1,1.1151582E0,3.6219246E0,1.1909631E0,-1.9477125E-1,-1.5E-1,1.8451767E-1,4.4538293E-2,1.1717766E-1,1.8396154E-1,3.4534704E-2,1.2702003E-2,-1.19930625E-1,-1.6190477E-1,1.8012613E-1,-1.7857715E-1,6.267004E-2,-7.177082E-2,-1.4398131E-1,1.6543437E-2,-7.005005E-2,-1.1852858E-1,4.5388173E-2,3.2324467E-2,-1.969112E-1,-1.1631252E-1,-1.34822745E-2,1.4692122E-1,-6.960083E-2,-1.9669423E-1,3.347524E-2,-1.1678659E-2,1.3697825E-1,1.6073991E-1,-1.7999999E-1,1.7996119E-1,-1.5789475E-1,1.6776098E-1,-1.8095239E-1,-1.9310345E-1,9.2022054E-2,-1.925926E-1,9.983864E-2],"split_indices":[11,15,14,12,11,8,3,14,17,1,8,2,11,3,7,5,12,0,0,23,12,2,16,0,0,6,17,13,0,1,0,4,0,5,0,0,3,0,0,21,12,13,3,4,24,2,3,1,0,0,7,5,0,4,11,13,0,0,0,0,0,0,0,0,0,0,0,0,0,0,0,0,0,0,0,0,0,0,0,0,0,0,0,0,0,0,0,0,0,0,0,0,0,0,0],"split_type":[0,0,0,0,0,0,0,0,0,0,0,0,0,0,0,0,0,0,0,0,0,0,0,0,0,0,0,0,0,0,0,0,0,0,0,0,0,0,0,0,0,0,0,0,0,0,0,0,0,0,0,0,0,0,0,0,0,0,0,0,0,0,0,0,0,0,0,0,0,0,0,0,0,0,0,0,0,0,0,0,0,0,0,0,0,0,0,0,0,0,0,0,0,0,0],"sum_hessian":[3.40605E4,2.7754797E4,6.3057017E3,7.113728E3,2.064107E4,6.0826343E3,2.2306732E2,6.721351E3,3.9237692E2,1.3754199E4,6.88687E3,5.734116E2,5.5092227E3,1.926904E2,3.0376928E1,3.6406624E3,3.080689E3,3.7981348E2,1.2563464E1,8.807118E3,4.9470815E3,4.8686333E3,2.018237E3,4.4115778E2,1.3225386E2,4.14198E3,1.3672427E3,9.919039E1,9.35E1,2.1376928E1,9E0,3.5991624E3,4.15E1,2.59186E3,4.888289E2,3.665E2,1.3313464E1,3.5E0,9.063464E0,1.7141981E3,7.09292E3,3.1366619E3,1.8104193E3,1.5304656E3,3.3381675E3,1.9122966E3,1.0594039E2,4.0790778E2,3.325E1,8.35E1,4.8753857E1,4.13473E3,7.25E0,7.188194E2,6.484232E2,6.194039E1,3.725E1,3E0,1.8376928E1,8.4486743E2,2.754295E3,2.7334045E2,2.3185195E3,1.7038464E2,3.1844424E2,4.25E0,9.063464E0,1.7006346E3,1.3563464E1,3.3367388E3,3.756181E3,2.3270715E3,8.0959045E2,1.6924116E3,1.1800771E2,1.4667156E3,6.375E1,2.2107366E3,1.1274309E3,1.8283562E3,8.394039E1,5.95E1,4.644039E1,9.631732E1,3.1159045E2,3.9753857E1,9E0,4.13098E3,3.75E0,7.093194E2,9.5E0,2.8E1,6.204232E2,2.6E1,3.594039E1],"tree_param":{"num_deleted":"0","num_feature":"26","num_nodes":"95","size_leaf_vector":"1"}},{"base_weights":[-4.9013463E-5,-2.9501247E-1,1.3035111E0,4.7616947E-1,-5.609387E-1,1.3908314E0,-1.0759012E0,5.993714E-1,-1.6465038E0,-8.515945E-1,1.9319436E-2,3.6300418E-1,1.4979585E0,-1.2989949E0,3.3526117E-1,8.730498E-1,2.7624413E-1,-1.8142183E-1,-4.5605266E-1,-1.1120218E0,-3.8912374E-1,-4.4034684E-1,1.1317077E0,7.1587545E-1,-8.159831E-1,1.6240873E0,1.1161792E0,-4.2931905E-1,-1.5900854E0,1.207937E0,-1.6504028E-1,9.039132E-1,-1.7793077E-1,4.5389E-1,-6.6579586E-1,4.407112E-1,-1.736405E-1,-1.6028478E0,-9.9372995E-1,-5.2441932E-2,-9.7381425E-1,-7.176124E-2,-9.892803E-1,5.9820414E-1,1.5686959E0,9.21164E-1,-1.7697957E-1,-1.7989159E-1,8.648755E-1,1.6301601E0,-1.6144185E-1,1.4768786E0,7.164971E-1,8.134534E-1,-1.755811E-1,-1.8242022E-1,-2.7821666E-1,-1.3935678E-1,1.6841953E-1,-6.0059607E-2,9.567942E-2,1.670845E-1,3.1092329E-2,1.1439699E-2,-1.08376995E-1,-1.645883E-1,1.4803047E-1,-1.6221769E-1,4.4602983E-2,-6.468218E-2,-1.3028455E-1,1.4890849E-2,-6.3133866E-2,-7.572076E-2,-1.6423938E-1,-3.645855E-2,1.0618275E-1,-1.284067E-1,-2.8061261E-2,8.005197E-2,-1.4708175E-1,1.6555656E-1,-1.8630356E-1,-1.0523147E-2,1.2392318E-1,1.4601007E-1,-1.6504028E-1,1.6585086E-1,1.1823249E-1,1.5211144E-1,-1.6584668E-1,1.1608783E-1,4.0566917E-3,1.5429519E-1,-1.5492763E-1,1.6300347E-1,-1.6981499E-1],"categories":[],"categories_nodes":[],"categories_segments":[],"categories_sizes":[],"default_left":[0,0,0,0,0,0,0,0,0,0,0,0,0,0,0,0,0,0,0,0,0,0,0,0,0,0,0,0,0,0,0,0,0,0,0,0,0,0,0,0,0,0,0,0,0,0,0,0,0,0,0,0,0,0,0,0,0,0,0,0,0,0,0,0,0,0,0,0,0,0,0,0,0,0,0,0,0,0,0,0,0,0,0,0,0,0,0,0,0,0,0,0,0,0,0,0,0],"id":1,"left_children":[1,3,5,7,9,11,13,15,17,19,21,23,25,27,29,31,33,-1,35,37,39,41,43,45,47,49,51,53,55,57,-1,59,-1,61,63,65,-1,67,69,71,73,75,77,79,81,83,-1,-1,85,87,-1,89,91,93,-1,-1,95,-1,-1,-1,-1,-1,-1,-1,-1,-1,-1,-1,-1,-1,-1,-1,-1,-1,-1,-1,-1,-1,-1,-1,-1,-1,-1,-1,-1,-1,-1,-1,-1,-1,-1,-1,-1,-1,-1,-1,-1],"loss_changes":[1.3048568E4,5.675631E3,1.3025566E3,1.856852E3,3.4707256E3,6.645947E2,7.039917E1,5.929641E2,7.6950806E1,1.6509043E3,3.512726E3,2.3834639E2,2.6159766E2,4.7948578E1,5.5940514E1,2.988789E2,5.153285E2,0E0,5.7532265E1,5.0765332E2,9.725957E2,9.834753E2,4.67364E2,2.2635037E2,2.198334E2,8.34541E1,1.9524109E2,8.3102684E1,4.358322E1,2.9858238E1,0E0,2.8621924E2,0E0,4.5007648E2,1.5948257E2,6.723869E1,0E0,6.8115234E1,7.5733057E2,3.6568912E2,2.602163E2,9.6613745E2,4.0757666E2,3.8046347E2,3.3209033E2,1.331471E2,0E0,0E0,7.6407715E1,5.0121094E1,0E0,1.01657715E2,1.9454874E2,4.765673E1,0E0,0E0,6.487065E1,0E0,0E0,0E0,0E0,0E0,0E0,0E0,0E0,0E0,0E0,0E0,0E0,0E0,0E0,0E0,0E0,0E0,0E0,0E0,0E0,0E0,0E0,0E0,0E0,0E0,0E0,0E0,0E0,0E0,0E0,0E0,0E0,0E0,0E0,0E0,0E0,0E0,0E0,0E0,0E0],"parents":[2147483647,0,0,1,1,2,2,3,3,4,4,5,5,6,6,7,7,8,8,9,9,10,10,11,11,12,12,13,13,14,14,15,15,16,16,18,18,19,19,20,20,21,21,22,22,23,23,24,24,25,25,26,26,27,27,28,28,29,29,31,31,33,33,34,34,35,35,37,37,38,38,39,39,40,40,41,41,42,42,43,43,44,44,45,45,48,48,49,49,51,51,52,52,53,53,56,56],"right_children":[2,4,6,8,10,12,14,16,18,20,22,24,26,28,30,32,34,-1,36,38,40,42,44,46,48,50,52,54,56,58,-1,60,-1,62,64,66,-1,68,70,72,74,76,78,80,82,84,-1,-1,86,88,-1,90,92,94,-1,-1,96,-1,-1,-1,-1,-1,-1,-1,-1,-1,-1,-1,-1,-1,-1,-1,-1,-1,-1,-1,-1,-1,-1,-1,-1,-1,-1,-1,-1,-1,-1,-1,-1,-1,-1,-1,-1,-1,-1,-1,-1],"split_conditions":[-1.0710549E-1,-3.1285778E-1,-5.1945355E-2,-5.210789E-2,-1.1351276E-1,-1.2062141E-1,1.476072E0,-8.3839905E-1,4.2358267E-1,-1.02189E-1,-1.23870544E-1,-5.146712E-1,2.9363468E0,-9.420595E-1,3.6382598E-1,2.1249814E0,-1.4582375E-1,-1.8142183E-1,-3.484714E-1,7.836525E-1,-1.4582375E-1,-5.146712E-1,-1.2062141E-1,3.7466973E-1,4.1868335E-1,2.0015347E0,-2.906974E-1,1.7422998E-1,4.4836003E-1,-3.2332864E-1,-1.6504028E-1,-1.6894344E0,-1.7793077E-1,-1.7765216E0,-1.3847423E0,-3.7249777E-1,-1.736405E-1,-4.965525E-1,-1.4582375E-1,-3.2046393E-1,2.5540435E-1,-1.02189E-1,2.078883E0,-3.7518E-1,1.4466494E-1,-4.5576006E-1,-1.7697957E-1,-1.7989159E-1,3.6382598E-1,7.141108E-1,-1.6144185E-1,1.1151582E0,-4.2731962E-1,-8.5016364E-1,-1.755811E-1,-1.8242022E-1,4.5909527E-1,-1.3935678E-1,1.6841953E-1,-6.0059607E-2,9.567942E-2,1.670845E-1,3.1092329E-2,1.1439699E-2,-1.08376995E-1,-1.645883E-1,1.4803047E-1,-1.6221769E-1,4.4602983E-2,-6.468218E-2,-1.3028455E-1,1.4890849E-2,-6.3133866E-2,-7.572076E-2,-1.6423938E-1,-3.645855E-2,1.0618275E-1,-1.284067E-1,-2.8061261E-2,8.005197E-2,-1.4708175E-1,1.6555656E-1,-1.8630356E-1,-1.0523147E-2,1.2392318E-1,1.4601007E-1,-1.6504028E-1,1.6585086E-1,1.1823249E-1,1.5211144E-1,-1.6584668E-1,1.1608783E-1,4.0566917E-3,1.5429519E-1,-1.5492763E-1,1.6300347E-1,-1.6981499E-1],"split_indices":[11,15,14,12,11,8,3,14,0,1,8,2,11,19,7,5,12,0,1,23,12,2,8,0,0,6,17,5,0,1,0,5,0,5,0,1,0,13,12,13,14,1,24,16,2,1,0,0,7,7,0,4,6,3,0,0,0,0,0,0,0,0,0,0,0,0,0,0,0,0,0,0,0,0,0,0,0,0,0,0,0,0,0,0,0,0,0,0,0,0,0,0,0,0,0,0,0],"split_type":[0,0,0,0,0,0,0,0,0,0,0,0,0,0,0,0,0,0,0,0,0,0,0,0,0,0,0,0,0,0,0,0,0,0,0,0,0,0,0,0,0,0,0,0,0,0,0,0,0,0,0,0,0,0,0,0,0,0,0,0,0,0,0,0,0,0,0,0,0,0,0,0,0,0,0,0,0,0,0,0,0,0,0,0,0,0,0,0,0,0,0,0,0,0,0,0,0],"sum_hessian":[3.393423E4,2.7673234E4,6.2609956E3,7.0955273E3,2.0577707E4,6.0397627E3,2.21233E2,6.7069663E3,3.8856085E2,1.3709863E4,6.8678438E3,5.7050165E2,5.4692607E3,1.9110094E2,3.0132072E1,3.6304172E3,3.076549E3,3.4011972E2,4.8441135E1,8.769925E3,4.939939E3,4.8601245E3,2.0077192E3,4.3938608E2,1.3111559E2,4.1086343E3,1.360627E3,4.8543858E1,1.4255707E2,2.120458E1,8.927492E0,3.5893105E3,4.1106804E1,2.5888694E3,4.876797E2,2.8873682E1,1.9567451E1,1.7006982E3,7.0692266E3,3.1355103E3,1.8044285E3,2.9083928E3,1.9517319E3,9.050925E2,1.1026267E3,4.0644748E2,3.293859E1,8.2689926E1,4.8425663E1,4.10144E3,7.194298E0,7.1377466E2,6.4685223E2,2.5262514E1,2.3281345E1,1.20637505E2,2.1919565E1,2.983188E0,1.8221394E1,1.2152278E2,3.4677876E3,2.7104086E2,2.3178286E3,1.7037778E2,3.173019E2,9.407818E0,1.9465864E1,1.6850103E3,1.5688059E1,3.3324456E3,3.736781E3,2.3269124E3,8.08598E2,1.3644922E3,4.399362E2,2.3118762E3,5.9651654E2,1.3777944E3,5.7393744E2,8.2503143E2,8.006114E1,1.075909E3,2.671763E1,9.631404E1,3.1013345E2,3.9498173E1,8.927492E0,3.854727E3,2.467128E2,7.0435205E2,9.422656E0,3.8983984E2,2.570124E2,1.9567852E1,5.694661E0,9.288612E0,1.2630953E1],"tree_param":{"num_deleted":"0","num_feature":"26","num_nodes":"97","size_leaf_vector":"1"}},{"base_weights":[-4.6331043E-5,-2.6772612E-1,1.1961538E0,-3.24213E-2,-9.8583287E-1,1.276209E0,-9.934957E-1,-3.957286E-1,6.327863E-1,1.3961944E-1,-1.0511829E0,3.306247E-1,1.3753159E0,-1.1987867E0,3.0406374E-1,6.244035E-1,-5.808085E-1,8.049526E-1,-6.767508E-1,-1.0986251E0,9.7784334E-1,-1.101647E0,-1.6813609E-1,-1.0696179E0,5.932025E-1,1.5238214E0,1.0867215E0,-3.979102E-1,-1.4680321E0,1.1122589E0,-1.5327652E-1,2.4923262E-1,1.1412135E0,3.762163E-1,-7.509414E-1,4.4988656E-1,1.0782253E0,-1.6332498E0,-7.605192E-3,-1.6711279E0,3.1236318E-1,1.4717798E0,-1.6582792E-1,-9.8577386E-1,-1.4364167E0,5.732623E-1,-1.1143036E0,-1.7797272E-1,1.2938238E0,7.60251E-1,-1.0881307E0,1.3546437E0,1.6566706E0,1.4256432E0,6.670457E-1,-1.6338944E-1,7.519289E-1,-1.6854247E-1,-2.5587025E-1,-1.3046835E-1,1.5589897E-1,3.789207E-2,-1.2455233E-1,1.2083577E-1,-1.9648783E-1,6.2177867E-2,-4.40516E-2,-9.9689595E-2,-1.928015E-2,-1.6248338E-2,6.911556E-2,1.2055059E-1,2.5962679E-2,6.407223E-2,-1.7249732E-1,6.543138E-2,-7.300212E-2,-1.9878471E-1,1.545332E-1,-1.9661324E-1,1.2767181E-1,-1.7593051E-1,1.6183178E-1,-1.214291E-1,-8.3420716E-2,-1.5571105E-1,-9.756448E-2,-1.760785E-1,1.0042597E-1,-1.7897213E-1,1.3134441E-1,1.6762987E-1,-1.19350426E-1,8.655816E-2,-1.7155781E-1,1.0963642E-1,-1.9128965E-1,1.42035E-1,-2.2575586E-1,1.665672E-1,-1.9636045E-1,4.286943E-2,1.5404482E-1,1.3521358E-1,4.4064827E-2,1.4027676E-1,-1.4692657E-1,1.502727E-1,-1.5752102E-1],"categories":[],"categories_nodes":[],"categories_segments":[],"categories_sizes":[],"default_left":[0,0,0,0,0,0,0,0,0,0,0,0,0,0,0,0,0,0,0,0,0,0,0,0,0,0,0,0,0,0,0,0,0,0,0,0,0,0,0,0,0,0,0,0,0,0,0,0,0,0,0,0,0,0,0,0,0,0,0,0,0,0,0,0,0,0,0,0,0,0,0,0,0,0,0,0,0,0,0,0,0,0,0,0,0,0,0,0,0,0,0,0,0,0,0,0,0,0,0,0,0,0,0,0,0,0,0,0,0],"id":2,"left_children":[1,3,5,7,9,11,13,15,17,19,21,23,25,27,29,31,33,35,37,39,41,43,45,47,49,51,53,55,57,59,-1,61,63,65,67,69,71,73,75,77,79,81,-1,83,85,87,89,-1,91,93,95,97,99,101,103,-1,105,-1,107,-1,-1,-1,-1,-1,-1,-1,-1,-1,-1,-1,-1,-1,-1,-1,-1,-1,-1,-1,-1,-1,-1,-1,-1,-1,-1,-1,-1,-1,-1,-1,-1,-1,-1,-1,-1,-1,-1,-1,-1,-1,-1,-1,-1,-1,-1,-1,-1,-1,-1],"loss_changes":[1.0764159E4,4.641688E3,1.0788115E3,5.0008335E3,4.9877783E2,5.553369E2,5.8269104E1,2.5271672E3,1.6484863E3,3.8816116E2,2.8535645E2,2.0798286E2,2.2839648E2,3.9930176E1,4.6970333E1,3.982937E2,1.8447888E3,6.263721E2,5.439209E2,1.22514786E2,2.9270367E2,2.3370068E2,2.4445523E2,1.5236038E2,1.3438887E2,7.735254E1,2.5894482E2,7.036128E1,3.6524536E1,2.5522697E1,0E0,2.3160686E2,1.826388E2,3.4334412E2,1.3202524E3,4.1549255E2,3.7998633E2,7.4066956E1,2.4006468E2,1.1267297E2,1.001394E2,9.1990845E1,0E0,1.5504932E2,8.503052E1,1.9846815E2,2.5329381E2,0E0,2.220364E1,1.1444205E2,8.0269806E1,3.7424194E2,6.777197E1,1.14936035E2,1.2631296E2,0E0,3.9481808E1,0E0,5.458424E1,0E0,0E0,0E0,0E0,0E0,0E0,0E0,0E0,0E0,0E0,0E0,0E0,0E0,0E0,0E0,0E0,0E0,0E0,0E0,0E0,0E0,0E0,0E0,0E0,0E0,0E0,0E0,0E0,0E0,0E0,0E0,0E0,0E0,0E0,0E0,0E0,0E0,0E0,0E0,0E0,0E0,0E0,0E0,0E0,0E0,0E0,0E0,0E0,0E0,0E0],"parents":[2147483647,0,0,1,1,2,2,3,3,4,4,5,5,6,6,7,7,8,8,9,9,10,10,11,11,12,12,13,13,14,14,15,15,16,16,17,17,18,18,19,19,20,20,21,21,22,22,23,23,24,24,25,25,26,26,27,27,28,28,29,29,31,31,32,32,33,33,34,34,35,35,36,36,37,37,38,38,39,39,40,40,41,41,43,43,44,44,45,45,46,46,48,48,49,49,50,50,51,51,52,52,53,53,54,54,56,56,58,58],"right_children":[2,4,6,8,10,12,14,16,18,20,22,24,26,28,30,32,34,36,38,40,42,44,46,48,50,52,54,56,58,60,-1,62,64,66,68,70,72,74,76,78,80,82,-1,84,86,88,90,-1,92,94,96,98,100,102,104,-1,106,-1,108,-1,-1,-1,-1,-1,-1,-1,-1,-1,-1,-1,-1,-1,-1,-1,-1,-1,-1,-1,-1,-1,-1,-1,-1,-1,-1,-1,-1,-1,-1,-1,-1,-1,-1,-1,-1,-1,-1,-1,-1,-1,-1,-1,-1,-1,-1,-1,-1,-1,-1],"split_conditions":[-1.0710549E-1,-1.4582375E-1,-5.1945355E-2,-1.24630965E-1,-1.0734311E0,-1.2062141E-1,1.476072E0,-8.926372E-1,3.5484102E-1,-1.1905636E-1,1.5741501E0,-8.8685656E-1,3.4075564E-1,-9.420595E-1,3.6382598E-1,7.40529E-2,-1.1740073E0,-1.2184366E-1,-2.0746817E-1,8.7954295E-1,-5.249962E-3,1.0809077E0,-3.6571017E-1,1.7329397E0,-4.3785632E-1,-8.282142E-2,-3.2928094E-1,-8.8685656E-1,4.4836003E-1,-3.2332864E-1,-1.5327652E-1,1.159539E0,-3.7182307E-1,8.805743E-1,-3.608085E-3,-1.23870544E-1,5.838573E-1,6.9204545E-1,-9.4532835E-1,1.5812831E0,-9.8965816E-2,-3.6208677E-1,-1.6582792E-1,-3.482287E-1,-7.513353E-2,-1.24630965E-1,1.3434021E0,-1.7797272E-1,-5.146712E-1,6.4671814E-1,-3.491469E-1,1.6753104E-1,1.9682246E0,-1.0824709E0,-4.1248193E-1,-1.6338944E-1,-4.6010906E-1,-1.6854247E-1,4.5909527E-1,-1.3046835E-1,1.5589897E-1,3.789207E-2,-1.2455233E-1,1.2083577E-1,-1.9648783E-1,6.2177867E-2,-4.40516E-2,-9.9689595E-2,-1.928015E-2,-1.6248338E-2,6.911556E-2,1.2055059E-1,2.5962679E-2,6.407223E-2,-1.7249732E-1,6.543138E-2,-7.300212E-2,-1.9878471E-1,1.545332E-1,-1.9661324E-1,1.2767181E-1,-1.7593051E-1,1.6183178E-1,-1.214291E-1,-8.3420716E-2,-1.5571105E-1,-9.756448E-2,-1.760785E-1,1.0042597E-1,-1.7897213E-1,1.3134441E-1,1.6762987E-1,-1.19350426E-1,8.655816E-2,-1.7155781E-1,1.0963642E-1,-1.9128965E-1,1.42035E-1,-2.2575586E-1,1.665672E-1,-1.9636045E-1,4.286943E-2,1.5404482E-1,1.3521358E-1,4.4064827E-2,1.4027676E-1,-1.4692657E-1,1.502727E-1,-1.5752102E-1],"split_indices":[11,12,14,9,14,8,3,14,14,9,3,23,8,19,7,1,2,9,1,1,12,13,5,19,13,9,17,23,0,1,0,4,13,4,1,8,16,13,0,3,12,4,0,1,8,9,4,0,2,25,25,16,5,14,19,0,1,0,0,0,0,0,0,0,0,0,0,0,0,0,0,0,0,0,0,0,0,0,0,0,0,0,0,0,0,0,0,0,0,0,0,0,0,0,0,0,0,0,0,0,0,0,0,0,0,0,0,0,0],"split_type":[0,0,0,0,0,0,0,0,0,0,0,0,0,0,0,0,0,0,0,0,0,0,0,0,0,0,0,0,0,0,0,0,0,0,0,0,0,0,0,0,0,0,0,0,0,0,0,0,0,0,0,0,0,0,0,0,0,0,0,0,0,0,0,0,0,0,0,0,0,0,0,0,0,0,0,0,0,0,0,0,0,0,0,0,0,0,0,0,0,0,0,0,0,0,0,0,0,0,0,0,0,0,0,0,0,0,0,0,0],"sum_hessian":[3.3615133E4,2.7469025E4,6.1461074E3,2.0690375E4,6.7786504E3,5.9297295E3,2.1637798E2,1.3382075E4,7.3082993E3,3.7194263E2,6.4067075E3,5.629484E2,5.3667812E3,1.8688622E2,2.9491755E1,2.0546707E3,1.1327404E4,6.459453E3,8.488465E2,1.5001952E2,2.2192311E2,6.0601367E3,3.4657086E2,8.8410446E1,4.7453796E2,3.5405818E3,1.8261992E3,4.7644478E1,1.3924174E2,2.0754396E1,8.737358E0,1.1913264E3,8.633443E2,1.7095726E3,9.617832E3,2.8104512E3,3.6490017E3,3.4880795E2,5.0003854E2,1.0658764E2,4.3431877E1,1.8727469E2,3.464841E1,4.5048335E3,1.5553031E3,1.9453284E2,1.5203801E2,6.8174126E1,2.0236322E1,4.3214966E2,4.2388313E1,1.5622816E3,1.9783003E3,1.0089748E3,8.1722437E2,2.2759201E1,2.4885279E1,1.17736176E2,2.1505564E1,2.9380705E0,1.7816326E1,1.0969033E3,9.4423065E1,8.456743E2,1.7669937E1,1.3145676E3,3.9500507E2,6.675406E3,2.942426E3,7.944266E2,2.0160245E3,3.1575713E3,4.9143063E2,1.329201E1,3.3551593E2,2.609946E2,2.3904393E2,9.738071E1,9.206929E0,1.26068E1,3.0825079E1,7.6474237E0,1.7962727E2,1.7936051E3,2.7112285E3,1.230586E3,3.2471707E2,2.9841604E1,1.6469124E2,1.1915187E2,3.288614E1,1.7821922E1,2.4144008E0,4.1513855E2,1.7011095E1,1.1527361E1,3.0860954E1,1.5349673E3,2.7314373E1,1.9739321E3,4.3681026E0,1.0468038E2,9.0429443E2,2.0174908E2,6.154753E2,1.9530928E1,5.3543506E0,9.158655E0,1.23469095E1],"tree_param":{"num_deleted":"0","num_feature":"26","num_nodes":"109","size_leaf_vector":"1"}},{"base_weights":[3.4135344E-5,-2.4344023E-1,1.10676E0,4.08427E-1,-4.6880862E-1,1.1806282E0,-9.283223E-1,5.125143E-1,-1.4519584E0,-7.1479523E-1,1.9717949E-2,3.0060244E-1,1.2742722E0,-1.1195985E0,2.7848062E-1,6.094153E-1,-9.191078E-2,-1.5312666E0,8.011046E-1,-9.413935E-1,-3.1878716E-1,-3.6633852E-1,9.705677E-1,-9.936134E-1,5.385959E-1,1.3902527E0,9.313367E-1,3.3442956E-1,-1.2483271E0,1.0346993E0,-1.437686E-1,2.3512645E-1,7.494313E-1,-4.385264E-1,1.2820951E0,-1.6076358E-1,5.2682346E-1,-1.2543151E-1,1.6136475E-1,-1.4044014E0,-8.3176297E-1,-4.348428E-2,-8.060045E-1,-4.7354158E-2,-8.465784E-1,1.0734129E0,-8.4963167E-1,-1.6536452E-1,1.2002119E0,7.8906107E-1,-5.2618885E-1,1.396089E0,-1.5724269E-1,-5.9883493E-1,1.0121887E0,-1.3561605E-1,1.3613969E-1,-1.5776844E-1,-8.009355E-1,-1.2291312E-1,1.4585616E-1,3.9163087E-2,-1.0990584E-1,-4.9254693E-2,8.366312E-2,-1.1864149E-1,-1.11230165E-2,-1.8006499E-1,1.5717137E-1,-1.3128822E-1,1.4436033E-1,-1.4233033E-1,8.191668E-2,-5.3942986E-2,-1.09844685E-1,-1.1364964E-2,1.337278E-1,-6.2409677E-2,-1.5015994E-1,-3.0765334E-2,9.575484E-2,-1.1197007E-1,-2.016394E-2,6.3373245E-2,1.4284645E-1,-1.7480469E-1,2.99541E-2,1.5613173E-1,-1.1302415E-1,8.774369E-2,-1.7221239E-1,-1.8405284E-1,1.7637217E-2,1.3994856E-1,-1.9923595E-1,4.792781E-2,-1.9959089E-1,1.0489911E-1,-2.0884274E-1,1.3613293E-1,-1.13394216E-1],"categories":[],"categories_nodes":[],"categories_segments":[],"categories_sizes":[],"default_left":[0,0,0,0,0,0,0,0,0,0,0,0,0,0,0,0,0,0,0,0,0,0,0,0,0,0,0,0,0,0,0,0,0,0,0,0,0,0,0,0,0,0,0,0,0,0,0,0,0,0,0,0,0,0,0,0,0,0,0,0,0,0,0,0,0,0,0,0,0,0,0,0,0,0,0,0,0,0,0,0,0,0,0,0,0,0,0,0,0,0,0,0,0,0,0,0,0,0,0,0,0],"id":3,"left_children":[1,3,5,7,9,11,13,15,17,19,21,23,25,27,29,31,33,35,37,39,41,43,45,47,49,51,53,55,57,59,-1,61,63,65,67,-1,69,-1,-1,71,73,75,77,79,81,83,85,-1,87,89,91,93,-1,95,97,-1,-1,-1,99,-1,-1,-1,-1,-1,-1,-1,-1,-1,-1,-1,-1,-1,-1,-1,-1,-1,-1,-1,-1,-1,-1,-1,-1,-1,-1,-1,-1,-1,-1,-1,-1,-1,-1,-1,-1,-1,-1,-1,-1,-1,-1],"loss_changes":[8.947892E3,3.9989155E3,9.012593E2,1.3549353E3,2.4306602E3,4.7583447E2,4.8854935E1,3.8798767E2,6.748309E1,1.2068809E3,2.4872603E3,1.7212535E2,2.0643066E2,3.443164E1,3.986621E1,2.9898242E2,4.368185E2,5.7199158E1,2.4177858E1,4.3313818E2,6.5689966E2,7.382048E2,3.671897E2,1.2778894E2,1.26080826E2,6.96416E1,1.6427563E2,2.8876263E1,2.3366943E1,2.2047499E1,0E0,3.252362E2,4.5028052E2,1.7910522E2,1.6781009E2,0E0,2.4801376E1,0E0,0E0,6.995215E1,5.389341E2,3.0343527E2,2.2280188E2,7.5803064E2,3.3856824E2,2.882754E2,1.09134865E2,0E0,1.9161966E1,8.6258835E1,8.3737274E1,4.7600586E1,0E0,1.01905E2,1.456167E2,0E0,0E0,0E0,5.4041157E1,0E0,0E0,0E0,0E0,0E0,0E0,0E0,0E0,0E0,0E0,0E0,0E0,0E0,0E0,0E0,0E0,0E0,0E0,0E0,0E0,0E0,0E0,0E0,0E0,0E0,0E0,0E0,0E0,0E0,0E0,0E0,0E0,0E0,0E0,0E0,0E0,0E0,0E0,0E0,0E0,0E0,0E0],"parents":[2147483647,0,0,1,1,2,2,3,3,4,4,5,5,6,6,7,7,8,8,9,9,10,10,11,11,12,12,13,13,14,14,15,15,16,16,17,17,18,18,19,19,20,20,21,21,22,22,23,23,24,24,25,25,26,26,27,27,28,28,29,29,31,31,32,32,33,33,34,34,36,36,39,39,40,40,41,41,42,42,43,43,44,44,45,45,46,46,48,48,49,49,50,50,51,51,53,53,54,54,58,58],"right_children":[2,4,6,8,10,12,14,16,18,20,22,24,26,28,30,32,34,36,38,40,42,44,46,48,50,52,54,56,58,60,-1,62,64,66,68,-1,70,-1,-1,72,74,76,78,80,82,84,86,-1,88,90,92,94,-1,96,98,-1,-1,-1,100,-1,-1,-1,-1,-1,-1,-1,-1,-1,-1,-1,-1,-1,-1,-1,-1,-1,-1,-1,-1,-1,-1,-1,-1,-1,-1,-1,-1,-1,-1,-1,-1,-1,-1,-1,-1,-1,-1,-1,-1,-1,-1],"split_conditions":[-1.0710549E-1,-3.1285778E-1,-5.1945355E-2,-5.210789E-2,-1.1351276E-1,-1.2062141E-1,1.476072E0,-1.4582375E-1,2.0436063E0,-1.02189E-1,-1.23870544E-1,-8.8685656E-1,2.9363468E0,-2.2648273E-1,3.6382598E-1,-4.2548785E-1,-9.462834E-2,7.31697E-1,1.309005E-1,7.836525E-1,-1.4582375E-1,-5.146712E-1,4.2030057E-1,1.7329397E0,5.533259E-1,2.0015347E0,-3.1866437E-1,1.001851E0,-3.0335605E-2,-3.2332864E-1,-1.437686E-1,6.9204545E-1,7.836525E-1,-3.678645E-1,-3.811071E-1,-1.6076358E-1,1.5313524E0,-1.2543151E-1,1.6136475E-1,8.723413E0,-1.4582375E-1,-1.1087401E-1,7.7715164E-1,-1.02189E-1,2.078883E0,-1.2062141E-1,7.779338E-1,-1.6536452E-1,-5.146712E-1,1.1151582E0,-4.5576006E-1,2.5883274E0,-1.5724269E-1,3.6382598E-1,2.8005663E-1,-1.3561605E-1,1.3613969E-1,-1.5776844E-1,-2.3983415E-2,-1.2291312E-1,1.4585616E-1,3.9163087E-2,-1.0990584E-1,-4.9254693E-2,8.366312E-2,-1.1864149E-1,-1.11230165E-2,-1.8006499E-1,1.5717137E-1,-1.3128822E-1,1.4436033E-1,-1.4233033E-1,8.191668E-2,-5.3942986E-2,-1.09844685E-1,-1.1364964E-2,1.337278E-1,-6.2409677E-2,-1.5015994E-1,-3.0765334E-2,9.575484E-2,-1.1197007E-1,-2.016394E-2,6.3373245E-2,1.4284645E-1,-1.7480469E-1,2.99541E-2,1.5613173E-1,-1.1302415E-1,8.774369E-2,-1.7221239E-1,-1.8405284E-1,1.7637217E-2,1.3994856E-1,-1.9923595E-1,4.792781E-2,-1.9959089E-1,1.0489911E-1,-2.0884274E-1,1.3613293E-1,-1.13394216E-1],"split_indices":[11,15,14,12,11,8,3,12,17,1,8,23,11,21,7,4,8,0,0,23,12,2,16,19,19,6,0,17,0,1,0,13,23,17,4,0,3,0,0,21,12,8,16,1,24,8,3,0,2,4,1,1,0,7,0,0,0,0,0,0,0,0,0,0,0,0,0,0,0,0,0,0,0,0,0,0,0,0,0,0,0,0,0,0,0,0,0,0,0,0,0,0,0,0,0,0,0,0,0,0,0],"split_type":[0,0,0,0,0,0,0,0,0,0,0,0,0,0,0,0,0,0,0,0,0,0,0,0,0,0,0,0,0,0,0,0,0,0,0,0,0,0,0,0,0,0,0,0,0,0,0,0,0,0,0,0,0,0,0,0,0,0,0,0,0,0,0,0,0,0,0,0,0,0,0,0,0,0,0,0,0,0,0,0,0,0,0,0,0,0,0,0,0,0,0,0,0,0,0,0,0,0,0,0,0],"sum_hessian":[3.320483E4,2.7217818E4,5.987009E3,6.992253E3,2.0225566E4,5.777713E3,2.0929588E2,6.6224556E3,3.697975E2,1.3451768E4,6.773799E3,5.56084E2,5.221629E3,1.8072374E2,2.857214E1,5.7074355E3,9.150201E2,3.5753262E2,1.2264845E1,8.555105E3,4.8966616E3,4.8181763E3,1.9556229E3,8.58817E1,4.7020227E2,3.8996987E3,1.32193E3,1.4568649E1,1.6615509E2,2.0108524E1,8.463616E0,1.55454E3,4.1528955E3,7.3123486E2,1.837852E2,3.4495145E2,1.2581184E1,3.3208034E0,8.944041E0,1.6355978E3,6.919508E3,3.1294504E3,1.7672112E3,2.8958179E3,1.9223582E3,1.8514237E3,1.0419921E2,6.620851E1,1.967319E1,3.8087054E2,8.9331726E1,3.8925596E3,7.1391554E0,6.602174E1,1.2559082E3,5.3843703E0,9.184279E0,9.424682E1,7.190828E1,2.8715985E0,1.7236925E1,1.3919644E3,1.6257567E2,2.7214304E2,3.8807522E3,2.2179567E2,5.094392E2,1.5335411E1,1.6844978E2,4.0406795E0,8.540505E0,1.622168E3,1.3429749E1,3.302453E3,3.617055E3,2.9789866E3,1.5046365E2,1.4023693E3,3.648419E2,2.3005913E3,5.952266E2,1.3499415E3,5.724166E2,8.283795E2,1.02304425E3,5.8187496E1,4.6011715E1,1.731955E1,2.3536394E0,3.6855078E2,1.2319774E1,3.0553328E1,5.8778397E1,3.8892478E3,3.3117378E0,3.7635563E1,2.8386183E1,1.2418302E3,1.4078109E1,9.184414E0,6.2723866E1],"tree_param":{"num_deleted":"0","num_feature":"26","num_nodes":"101","size_leaf_vector":"1"}},{"base_weights":[5.3331107E-5,-2.2212835E-1,1.0299151E0,4.0384105E-1,-4.175345E-1,1.0985212E0,-8.6957556E-1,4.9465662E-1,-1.3494192E0,4.3199304E-1,-5.286016E-1,2.7387306E-1,1.1878872E0,-1.047513E0,2.5690693E-1,9.886116E-2,6.400883E-1,-1.4342091E0,7.426234E-1,6.597971E-1,-4.2789793E-1,-7.672859E-1,-3.3535615E-2,5.579694E-1,-7.0444304E-1,1.3315464E0,9.162465E-1,-6.2871426E-1,-1.4903595E-1,9.702057E-1,-1.3590789E-1,3.8646862E-1,-5.8971053E-1,1.1774329E0,4.045653E-1,-1.5161832E-1,6.0641366E-1,-1.18813716E-1,1.5034053E-1,1.3466736E0,4.538242E-1,-8.780499E-1,7.424774E-1,-9.171497E-1,-2.9991677E-1,-2.51598E-1,9.6973604E-1,7.35695E-1,-1.6191638E-1,-1.5771347E-1,7.485045E-1,1.1615291E0,1.466382E0,1.2395926E0,5.095716E-1,-1.1179386E-1,-1.4889584E-1,-1.16390705E-1,1.3759558E-1,5.504861E-2,-9.574198E-2,-1.0685261E-1,8.389991E-2,1.3278843E-1,6.415409E-2,1.847976E-2,8.532836E-2,1.3641179E-1,-1.1905911E-1,-1.7711262E-1,1.3736372E-1,-8.747007E-2,5.4884564E-2,-1.2268572E-1,5.258122E-2,9.098741E-2,-1.6771016E-1,-9.683924E-2,4.752858E-3,5.9009768E-2,-7.661064E-2,-1.2030083E-3,-7.701747E-2,1.3028598E-1,1.5868837E-2,-1.0809225E-1,8.997279E-2,-1.5369807E-1,1.2402659E-1,1.22653484E-1,-2.1486111E-1,1.4755224E-1,-1.9036691E-1,1.2761E-1,-1.7962316E-1,8.608931E-2,6.403418E-3,-1.4410245E-1,4.323636E-2],"categories":[],"categories_nodes":[],"categories_segments":[],"categories_sizes":[],"default_left":[0,0,0,0,0,0,0,0,0,0,0,0,0,0,0,0,0,0,0,0,0,0,0,0,0,0,0,0,0,0,0,0,0,0,0,0,0,0,0,0,0,0,0,0,0,0,0,0,0,0,0,0,0,0,0,0,0,0,0,0,0,0,0,0,0,0,0,0,0,0,0,0,0,0,0,0,0,0,0,0,0,0,0,0,0,0,0,0,0,0,0,0,0,0,0,0,0,0,0],"id":4,"left_children":[1,3,5,7,9,11,13,15,17,19,21,23,25,27,29,31,33,35,37,39,41,43,45,47,49,51,53,55,-1,57,-1,59,61,63,65,-1,67,-1,-1,69,71,73,75,77,79,81,83,85,-1,-1,87,89,91,93,95,97,-1,-1,-1,-1,-1,-1,-1,-1,-1,-1,-1,-1,-1,-1,-1,-1,-1,-1,-1,-1,-1,-1,-1,-1,-1,-1,-1,-1,-1,-1,-1,-1,-1,-1,-1,-1,-1,-1,-1,-1,-1,-1,-1],"loss_changes":[7.479568E3,3.2889893E3,7.568799E2,1.0192273E3,1.9336809E3,4.1228906E2,4.091194E1,3.5006702E2,5.699518E1,4.6449997E2,2.141413E3,1.5290259E2,1.95896E2,3.157515E1,3.4126648E1,3.2415152E2,5.624597E2,5.166571E1,2.0794113E1,2.6450305E2,2.6246173E2,8.5614795E2,1.2901869E3,1.6594466E2,1.5831766E2,7.398584E1,2.2955273E2,4.0666977E1,0E0,1.9205397E1,0E0,2.5497185E2,3.308349E2,1.0839453E2,3.0496356E2,0E0,1.8548988E1,0E0,0E0,3.8731384E1,1.8265564E2,1.7661337E2,5.765558E1,4.576963E2,1.2328665E3,6.0181287E2,2.842751E2,1.18481705E2,0E0,0E0,5.493447E1,3.179005E2,5.9412354E1,1.1029126E2,1.21572525E2,4.2893917E1,0E0,0E0,0E0,0E0,0E0,0E0,0E0,0E0,0E0,0E0,0E0,0E0,0E0,0E0,0E0,0E0,0E0,0E0,0E0,0E0,0E0,0E0,0E0,0E0,0E0,0E0,0E0,0E0,0E0,0E0,0E0,0E0,0E0,0E0,0E0,0E0,0E0,0E0,0E0,0E0,0E0,0E0,0E0],"parents":[2147483647,0,0,1,1,2,2,3,3,4,4,5,5,6,6,7,7,8,8,9,9,10,10,11,11,12,12,13,13,14,14,15,15,16,16,17,17,18,18,19,19,20,20,21,21,22,22,23,23,24,24,25,25,26,26,27,27,29,29,31,31,32,32,33,33,34,34,36,36,39,39,40,40,41,41,42,42,43,43,44,44,45,45,46,46,47,47,50,50,51,51,52,52,53,53,54,54,55,55],"right_children":[2,4,6,8,10,12,14,16,18,20,22,24,26,28,30,32,34,36,38,40,42,44,46,48,50,52,54,56,-1,58,-1,60,62,64,66,-1,68,-1,-1,70,72,74,76,78,80,82,84,86,-1,-1,88,90,92,94,96,98,-1,-1,-1,-1,-1,-1,-1,-1,-1,-1,-1,-1,-1,-1,-1,-1,-1,-1,-1,-1,-1,-1,-1,-1,-1,-1,-1,-1,-1,-1,-1,-1,-1,-1,-1,-1,-1,-1,-1,-1,-1,-1,-1],"split_conditions":[-1.0710549E-1,-3.365746E-1,-5.1945355E-2,-5.210789E-2,-1.1740073E0,-1.2062141E-1,1.476072E0,-4.2548785E-1,2.0436063E0,8.805743E-1,4.978384E-2,-5.146712E-1,3.4075564E-1,-4.5116386E-1,3.6382598E-1,1.7422998E-1,-2.9234558E-1,7.31697E-1,1.309005E-1,-3.8715625E-1,1.1220989E0,-1.2184366E-1,2.078883E0,3.7466973E-1,4.1868335E-1,-8.282142E-2,-2.906974E-1,-4.6010906E-1,-1.4903595E-1,-3.2332864E-1,-1.3590789E-1,-8.5027504E-1,1.2834821E0,-3.900488E-1,8.4703434E-1,-1.5161832E-1,-3.484714E-1,-1.18813716E-1,1.5034053E-1,-5.80492E0,-5.6866944E-1,5.943209E-1,1.159539E0,3.9542456E0,-1.4582375E-1,-1.4582375E-1,-4.2731962E-1,-5.942688E-1,-1.6191638E-1,-1.5771347E-1,3.8323906E-1,1.6753104E-1,1.9682246E0,1.1151582E0,3.6382598E-1,-4.7772726E-1,-1.4889584E-1,-1.16390705E-1,1.3759558E-1,5.504861E-2,-9.574198E-2,-1.0685261E-1,8.389991E-2,1.3278843E-1,6.415409E-2,1.847976E-2,8.532836E-2,1.3641179E-1,-1.1905911E-1,-1.7711262E-1,1.3736372E-1,-8.747007E-2,5.4884564E-2,-1.2268572E-1,5.258122E-2,9.098741E-2,-1.6771016E-1,-9.683924E-2,4.752858E-3,5.9009768E-2,-7.661064E-2,-1.2030083E-3,-7.701747E-2,1.3028598E-1,1.5868837E-2,-1.0809225E-1,8.997279E-2,-1.5369807E-1,1.2402659E-1,1.22653484E-1,-2.1486111E-1,1.4755224E-1,-1.9036691E-1,1.2761E-1,-1.7962316E-1,8.608931E-2,6.403418E-3,-1.4410245E-1,4.323636E-2],"split_indices":[11,15,14,12,2,8,3,4,17,4,1,2,8,3,7,5,4,0,0,17,3,9,24,0,0,9,17,1,0,1,0,4,3,16,3,0,1,0,0,22,1,0,4,7,12,12,6,3,0,0,5,16,5,4,7,0,0,0,0,0,0,0,0,0,0,0,0,0,0,0,0,0,0,0,0,0,0,0,0,0,0,0,0,0,0,0,0,0,0,0,0,0,0,0,0,0,0,0,0],"split_type":[0,0,0,0,0,0,0,0,0,0,0,0,0,0,0,0,0,0,0,0,0,0,0,0,0,0,0,0,0,0,0,0,0,0,0,0,0,0,0,0,0,0,0,0,0,0,0,0,0,0,0,0,0,0,0,0,0,0,0,0,0,0,0,0,0,0,0,0,0,0,0,0,0,0,0,0,0,0,0,0,0,0,0,0,0,0,0,0,0,0,0,0,0,0,0,0,0,0,0],"sum_hessian":[3.2686074E4,2.6886404E4,5.7996704E3,6.3960513E3,2.0490354E4,5.597906E3,2.0176459E2,6.081746E3,3.1430505E2,2.368828E3,1.8121525E4,5.477216E2,5.050184E3,1.7430219E2,2.7462402E1,1.634661E3,4.447085E3,3.0236475E2,1.19403105E1,1.8728907E3,4.959373E2,1.2226338E4,5.8951865E3,4.2479398E2,1.2292762E2,3.3006887E3,1.7494955E3,9.082703E1,8.347516E1,1.9329811E1,8.132591E0,1.1533574E3,4.8130365E2,1.353982E3,3.093103E3,2.909346E2,1.143016E1,3.2162287E0,8.724082E0,4.3078265E2,1.442108E3,3.5835562E2,1.3758165E2,9.257061E3,2.969278E3,4.8432495E3,1.0519374E3,3.933461E2,3.1447884E1,7.6745865E1,4.6181755E1,1.4641378E3,1.836551E3,9.734555E2,7.760399E2,5.7440815E1,3.338621E1,2.7894864E0,1.6540325E1,1.0284309E3,1.2492649E2,3.606785E2,1.2062516E2,1.0560256E3,2.9795648E2,2.0771794E3,1.0159235E3,8.209521E0,3.2206383E0,3.1389406E0,4.276437E2,9.571274E1,1.3463954E3,2.8713852E2,7.12171E1,1.2926268E2,8.31898E0,8.790135E3,4.6692575E2,1.0205859E3,1.9486923E3,3.3135193E3,1.5297301E3,7.4523755E2,3.066998E2,3.211308E1,3.6123303E2,7.8009577E0,3.8380795E1,1.4365557E3,2.7582132E1,1.8321439E3,4.4070783E0,9.6246106E2,1.09944725E1,4.3337592E2,3.42664E2,1.6205921E1,4.1234894E1],"tree_param":{"num_deleted":"0","num_feature":"26","num_nodes":"99","size_leaf_vector":"1"}},{"base_weights":[1.9499872E-4,-2.0264882E-1,9.642797E-1,-1.9991044E-2,-7.77079E-1,1.0285087E0,-8.2011044E-1,-3.1164122E-1,5.1370305E-1,-8.8577414E-1,-2.515518E-1,2.510143E-1,1.1142697E0,-9.8632485E-1,2.3827296E-1,5.156654E-1,-4.619972E-1,6.643646E-1,-6.153224E-1,-1.1367822E0,-7.058308E-1,-4.8902524E-1,6.542551E-1,4.2976892E-1,-1.1494517E0,1.257648E0,8.4834325E-1,-5.863504E-1,-1.4199741E-1,9.1540027E-1,-1.2928246E-1,5.851769E-1,-1.5259706E0,3.106216E-1,-6.0195637E-1,7.255046E-1,-5.390667E-1,-1.467692E0,-2.798982E-2,-6.30989E-1,-1.2631878E0,-5.209771E-1,-1.1825789E0,-1.9566964E-1,-1.0602385E0,9.7754884E-1,-1.529601E-1,8.2464564E-1,-3.5443053E-1,7.8605497E-1,-1.636949E-1,1.0895878E0,1.3925086E0,1.0062103E0,3.4483574E-2,-9.150666E-2,-1.4232165E-1,-1.1068187E-1,1.3065457E-1,2.9466009E-2,9.9126264E-2,-1.9796772E-1,3.5711E-2,6.9791555E-2,-1.4592278E-2,-1.0293539E-1,-4.071568E-2,4.4430118E-2,9.4034605E-2,4.657224E-3,-1.5586305E-1,5.2207E-2,-1.5487899E-1,-8.961947E-2,4.019996E-2,-1.5713258E-1,-3.53407E-2,-9.979584E-2,-1.4917575E-1,-5.8203187E-2,1.2795095E-1,-5.377213E-2,-1.310981E-1,6.366738E-2,-4.9235366E-2,-6.0006667E-2,-1.4235042E-1,-1.5012117E-1,1.2155566E-1,9.9951185E-2,-1.484343E-1,-1.1223457E-1,5.88229E-2,1.5887044E-1,-1.367427E-1,1.1517103E-1,-1.9221927E-1,1.4015204E-1,-1.720771E-1,1.258051E-1,6.304886E-2,5.7821173E-2,-9.2233144E-2,-1.4132896E-1,8.049628E-2],"categories":[],"categories_nodes":[],"categories_segments":[],"categories_sizes":[],"default_left":[0,0,0,0,0,0,0,0,0,0,0,0,0,0,0,0,0,0,0,0,0,0,0,0,0,0,0,0,0,0,0,0,0,0,0,0,0,0,0,0,0,0,0,0,0,0,0,0,0,0,0,0,0,0,0,0,0,0,0,0,0,0,0,0,0,0,0,0,0,0,0,0,0,0,0,0,0,0,0,0,0,0,0,0,0,0,0,0,0,0,0,0,0,0,0,0,0,0,0,0,0,0,0,0,0],"id":5,"left_children":[1,3,5,7,9,11,13,15,17,19,21,23,25,27,29,31,33,35,37,39,41,43,45,47,49,51,53,55,-1,57,-1,59,61,63,65,67,69,71,73,75,77,79,81,83,85,87,-1,89,91,93,-1,95,97,99,101,103,-1,-1,-1,-1,-1,-1,-1,-1,-1,-1,-1,-1,-1,-1,-1,-1,-1,-1,-1,-1,-1,-1,-1,-1,-1,-1,-1,-1,-1,-1,-1,-1,-1,-1,-1,-1,-1,-1,-1,-1,-1,-1,-1,-1,-1,-1,-1,-1,-1],"loss_changes":[6.2861025E3,2.7864321E3,6.4123047E2,3.1366445E3,3.657688E2,3.5937646E2,3.4484955E1,1.6211293E3,1.2116896E3,2.3897559E2,2.368229E2,1.3496414E2,1.8414795E2,2.8386734E1,2.941507E1,2.853623E2,1.1926128E3,4.626848E2,4.199288E2,1.408186E2,2.7211426E2,1.4585776E2,1.6303609E2,1.4802505E2,5.8912506E1,6.9967285E1,2.1899011E2,3.686561E1,0E0,1.6843626E1,0E0,2.2848438E2,5.7331238E1,2.99252E2,7.7689355E2,3.6084204E2,1.8179886E2,5.602948E1,1.8615434E2,1.1556703E2,1.0588281E2,2.4608325E2,7.082495E1,1.4283263E2,4.854962E1,1.19763885E2,0E0,1.2972032E2,1.1682472E2,2.457923E1,0E0,2.65792E2,5.1404053E1,1.3430164E2,1.4515388E2,6.892685E1,0E0,0E0,0E0,0E0,0E0,0E0,0E0,0E0,0E0,0E0,0E0,0E0,0E0,0E0,0E0,0E0,0E0,0E0,0E0,0E0,0E0,0E0,0E0,0E0,0E0,0E0,0E0,0E0,0E0,0E0,0E0,0E0,0E0,0E0,0E0,0E0,0E0,0E0,0E0,0E0,0E0,0E0,0E0,0E0,0E0,0E0,0E0,0E0,0E0],"parents":[2147483647,0,0,1,1,2,2,3,3,4,4,5,5,6,6,7,7,8,8,9,9,10,10,11,11,12,12,13,13,14,14,15,15,16,16,17,17,18,18,19,19,20,20,21,21,22,22,23,23,24,24,25,25,26,26,27,27,29,29,31,31,32,32,33,33,34,34,35,35,36,36,37,37,38,38,39,39,40,40,41,41,42,42,43,43,44,44,45,45,47,47,48,48,49,49,51,51,52,52,53,53,54,54,55,55],"right_children":[2,4,6,8,10,12,14,16,18,20,22,24,26,28,30,32,34,36,38,40,42,44,46,48,50,52,54,56,-1,58,-1,60,62,64,66,68,70,72,74,76,78,80,82,84,86,88,-1,90,92,94,-1,96,98,100,102,104,-1,-1,-1,-1,-1,-1,-1,-1,-1,-1,-1,-1,-1,-1,-1,-1,-1,-1,-1,-1,-1,-1,-1,-1,-1,-1,-1,-1,-1,-1,-1,-1,-1,-1,-1,-1,-1,-1,-1,-1,-1,-1,-1,-1,-1,-1,-1,-1,-1],"split_conditions":[-1.0710549E-1,-1.4582375E-1,-5.1945355E-2,-1.24630965E-1,7.2446364E-1,-1.2062141E-1,1.476072E0,-8.926372E-1,3.5484102E-1,-1.2062141E-1,-1.1905636E-1,-4.3785632E-1,3.4075564E-1,-4.5116386E-1,3.6382598E-1,-3.900488E-1,-1.1740073E0,2.3262984E-1,-2.0746817E-1,-1.4428015E0,1.0809077E0,-4.2731962E-1,-1.9423857E-1,-3.2548922E-1,-3.491469E-1,-8.282142E-2,8.805743E-1,1.6972178E0,-1.4199741E-1,-3.2332864E-1,-1.2928246E-1,7.40529E-2,1.5688003E0,-4.2731962E-1,-3.0328506E-1,-1.2184366E-1,-6.808456E-1,6.9204545E-1,1.7632511E0,-1.7199782E0,-3.9383414E-1,1.625864E0,-1.3321232E0,9.0648156E-1,-2.0895335E-1,-6.095541E-1,-1.529601E-1,-5.146712E-1,5.320154E-2,-1.5375646E0,-1.636949E-1,1.6753104E-1,1.9682246E0,-2.906974E-1,-4.2731962E-1,1.1909631E0,-1.4232165E-1,-1.1068187E-1,1.3065457E-1,2.9466009E-2,9.9126264E-2,-1.9796772E-1,3.5711E-2,6.9791555E-2,-1.4592278E-2,-1.0293539E-1,-4.071568E-2,4.4430118E-2,9.4034605E-2,4.657224E-3,-1.5586305E-1,5.2207E-2,-1.5487899E-1,-8.961947E-2,4.019996E-2,-1.5713258E-1,-3.53407E-2,-9.979584E-2,-1.4917575E-1,-5.8203187E-2,1.2795095E-1,-5.377213E-2,-1.310981E-1,6.366738E-2,-4.9235366E-2,-6.0006667E-2,-1.4235042E-1,-1.5012117E-1,1.2155566E-1,9.9951185E-2,-1.484343E-1,-1.1223457E-1,5.88229E-2,1.5887044E-1,-1.367427E-1,1.1517103E-1,-1.9221927E-1,1.4015204E-1,-1.720771E-1,1.258051E-1,6.304886E-2,5.7821173E-2,-9.2233144E-2,-1.4132896E-1,8.049628E-2],"split_indices":[11,12,14,9,1,8,3,14,14,8,9,13,8,3,7,16,2,15,1,0,13,6,17,0,25,9,4,13,0,1,0,1,3,6,19,9,0,13,13,0,13,3,4,1,5,5,0,2,21,0,0,16,5,17,6,13,0,0,0,0,0,0,0,0,0,0,0,0,0,0,0,0,0,0,0,0,0,0,0,0,0,0,0,0,0,0,0,0,0,0,0,0,0,0,0,0,0,0,0,0,0,0,0,0,0],"split_type":[0,0,0,0,0,0,0,0,0,0,0,0,0,0,0,0,0,0,0,0,0,0,0,0,0,0,0,0,0,0,0,0,0,0,0,0,0,0,0,0,0,0,0,0,0,0,0,0,0,0,0,0,0,0,0,0,0,0,0,0,0,0,0,0,0,0,0,0,0,0,0,0,0,0,0,0,0,0,0,0,0,0,0,0,0,0,0,0,0,0,0,0,0,0,0,0,0,0,0,0,0,0,0,0,0],"sum_hessian":[3.214234E4,2.6555783E4,5.5865576E3,2.0149623E4,6.4061587E3,5.3928657E3,1.9369203E2,1.3029663E4,7.119961E3,5.307682E3,1.0984766E3,5.3615045E2,4.8567153E3,1.674611E2,2.6230936E1,2.003475E3,1.10261875E4,6.282069E3,8.37892E2,2.213997E3,3.0936848E3,8.70674E2,2.278026E2,4.7607736E2,6.00731E1,3.1529985E3,1.7037166E3,8.833647E1,7.9124626E1,1.8466335E1,7.764601E0,1.9381986E3,6.5276375E1,1.6908643E3,9.335323E3,5.978719E3,3.0335004E2,3.412101E2,4.9668192E2,4.4387817E2,1.770119E3,2.2308074E3,8.6287756E2,5.761339E2,2.945401E2,1.9890889E2,2.8893705E1,3.166031E2,1.5947427E2,1.1963211E1,4.810989E1,1.40776E3,1.7452386E3,1.4267322E3,2.7698434E2,5.6209072E1,3.21274E1,2.696381E0,1.5769954E1,1.1308823E3,8.073162E2,5.256109E1,1.2715287E1,9.145273E2,7.76337E2,2.9213938E3,6.4139297E3,2.5907654E3,3.3879539E3,1.9328258E2,1.1006747E2,1.3149343E1,3.2806076E2,1.6415245E2,3.3252945E2,1.0010425E2,3.4377393E2,8.2183624E2,9.482828E2,2.1582961E3,7.251135E1,1.4414476E2,7.187328E2,1.510944E2,4.250395E2,1.311085E2,1.6343161E2,1.6960835E1,1.8194806E2,2.9484106E2,2.1762022E1,8.777767E1,7.16966E1,8.906011E0,3.0572007E0,1.3799148E3,2.7845226E1,1.7407498E3,4.4889846E0,8.52779E2,5.7395325E2,1.7687021E2,1.0011413E2,2.2482967E1,3.3726105E1],"tree_param":{"num_deleted":"0","num_feature":"26","num_nodes":"105","size_leaf_vector":"1"}},{"base_weights":[2.3870447E-4,-1.8522334E-1,9.064516E-1,-1.82226E-2,-7.171874E-1,9.705852E-1,-6.7777157E-1,-2.83375E-1,4.682438E-1,-8.19356E-1,-2.3003082E-1,2.4642919E-1,1.0517184E0,-1.0004916E0,6.6695094E-1,4.6210924E-1,-4.2143524E-1,6.057417E-1,-5.607888E-1,-7.188421E-1,-1.2346513E0,-4.461263E-1,5.945727E-1,3.684572E-1,-1.5644446E-1,1.1980338E0,7.85866E-1,3.51965E-1,-1.1182696E0,1.1198295E0,-1.2360307E-1,5.283883E-1,-1.4159287E0,2.8041008E-1,-5.5004954E-1,6.9161046E-1,-1.5179713E-1,-1.3573076E0,-2.5345147E-2,-1.0051891E0,-5.120518E-1,-5.626324E-1,-1.4317741E0,-1.7721486E-1,-9.8002934E-1,8.8581127E-1,-1.4480045E-1,5.2126664E-1,-9.8953307E-1,1.0313321E0,1.334215E0,1.1039197E0,4.2264548E-1,-1.17387295E-1,1.2223871E-1,-1.4364193E-1,-6.937669E-1,-7.602531E-2,1.2054315E0,3.467015E-2,1.0980979E-1,-1.8117766E-1,3.2609165E-2,3.578656E-2,-1.7009185E-1,-7.792547E-2,-1.7657762E-2,4.008222E-2,9.111912E-2,1.7023034E-2,-1.2997918E-1,4.7589775E-2,-1.4336292E-1,5.1297642E-2,-7.134857E-2,-6.390652E-2,-1.176159E-1,-9.670644E-2,-2.870891E-2,3.6281295E-2,-1.2111267E-1,-1.4788654E-1,-5.8703072E-2,5.6815233E-2,-4.479039E-2,-7.028729E-2,-1.56771E-1,-1.4216238E-1,1.09885745E-1,8.3495E-2,-1.5758596E-2,7.600602E-2,-1.5330397E-1,1.08970426E-1,-1.7535405E-1,1.3431783E-1,-1.578348E-1,1.0081862E-2,1.2261086E-1,4.7846373E-2,-2.2779946E-1,1.2160939E-1,-9.878868E-2,8.181854E-2,1.3159834E-1],"categories":[],"categories_nodes":[],"categories_segments":[],"categories_sizes":[],"default_left":[0,0,0,0,0,0,0,0,0,0,0,0,0,0,0,0,0,0,0,0,0,0,0,0,0,0,0,0,0,0,0,0,0,0,0,0,0,0,0,0,0,0,0,0,0,0,0,0,0,0,0,0,0,0,0,0,0,0,0,0,0,0,0,0,0,0,0,0,0,0,0,0,0,0,0,0,0,0,0,0,0,0,0,0,0,0,0,0,0,0,0,0,0,0,0,0,0,0,0,0,0,0,0,0,0],"id":6,"left_children":[1,3,5,7,9,11,13,15,17,19,21,23,25,27,29,31,33,35,37,39,41,43,45,47,-1,49,51,53,55,57,-1,59,61,63,65,67,69,71,73,75,77,79,81,83,85,87,-1,89,91,93,95,97,99,-1,-1,-1,101,-1,103,-1,-1,-1,-1,-1,-1,-1,-1,-1,-1,-1,-1,-1,-1,-1,-1,-1,-1,-1,-1,-1,-1,-1,-1,-1,-1,-1,-1,-1,-1,-1,-1,-1,-1,-1,-1,-1,-1,-1,-1,-1,-1,-1,-1,-1,-1],"loss_changes":[5.3050903E3,2.3277842E3,5.45501E2,2.5725544E3,3.1140723E2,3.025713E2,9.1467354E1,1.3287423E3,9.958369E2,2.151206E2,1.939142E2,1.1561772E2,1.7933984E2,2.7335312E1,3.680074E1,2.5187534E2,9.8333093E2,4.0386353E2,3.538785E2,2.4633154E2,1.3259009E2,1.2353609E2,1.3577463E2,1.0189561E2,0E0,6.644531E1,1.899367E2,2.0440184E1,2.0048721E1,6.343258E0,0E0,2.0140448E2,4.8202805E1,2.595797E2,7.8785474E2,3.5562158E2,2.3414554E2,4.7352783E1,1.8457062E2,1.08607544E2,2.4770886E2,1.3849298E2,3.0078735E1,1.1611745E2,4.5872406E1,9.913835E1,0E0,9.3781715E1,4.8481594E1,2.2098206E2,4.495703E1,1.0750342E2,1.17325424E2,0E0,0E0,0E0,3.978636E1,0E0,3.2055283E-1,0E0,0E0,0E0,0E0,0E0,0E0,0E0,0E0,0E0,0E0,0E0,0E0,0E0,0E0,0E0,0E0,0E0,0E0,0E0,0E0,0E0,0E0,0E0,0E0,0E0,0E0,0E0,0E0,0E0,0E0,0E0,0E0,0E0,0E0,0E0,0E0,0E0,0E0,0E0,0E0,0E0,0E0,0E0,0E0,0E0,0E0],"parents":[2147483647,0,0,1,1,2,2,3,3,4,4,5,5,6,6,7,7,8,8,9,9,10,10,11,11,12,12,13,13,14,14,15,15,16,16,17,17,18,18,19,19,20,20,21,21,22,22,23,23,25,25,26,26,27,27,28,28,29,29,31,31,32,32,33,33,34,34,35,35,36,36,37,37,38,38,39,39,40,40,41,41,42,42,43,43,44,44,45,45,47,47,48,48,49,49,50,50,51,51,52,52,56,56,58,58],"right_children":[2,4,6,8,10,12,14,16,18,20,22,24,26,28,30,32,34,36,38,40,42,44,46,48,-1,50,52,54,56,58,-1,60,62,64,66,68,70,72,74,76,78,80,82,84,86,88,-1,90,92,94,96,98,100,-1,-1,-1,102,-1,104,-1,-1,-1,-1,-1,-1,-1,-1,-1,-1,-1,-1,-1,-1,-1,-1,-1,-1,-1,-1,-1,-1,-1,-1,-1,-1,-1,-1,-1,-1,-1,-1,-1,-1,-1,-1,-1,-1,-1,-1,-1,-1,-1,-1,-1,-1],"split_conditions":[-1.0710549E-1,-1.4582375E-1,-2.1465991E-1,-1.24630965E-1,7.2446364E-1,-1.2062141E-1,1.476072E0,-8.835975E-1,3.5484102E-1,1.6165105E0,-1.1905636E-1,6.4671814E-1,3.4075564E-1,-2.2648273E-1,3.6382598E-1,-3.900488E-1,-1.1740073E0,-2.0612674E-2,-2.0746817E-1,-1.2062141E-1,-1.2243414E0,-4.2731962E-1,-1.9423857E-1,-4.3785632E-1,-1.5644446E-1,-8.282142E-2,-3.2928094E-1,1.001851E0,-3.0335605E-2,-2.0895335E-1,-1.2360307E-1,5.788493E-1,1.5688003E0,1.159539E0,-1.02189E-1,-3.1409657E-1,1.6147926E-1,6.9204545E-1,-7.933694E-1,-6.2697154E-1,-3.6208677E-1,-1.204849E0,6.745936E-1,9.0648156E-1,-2.1093525E-1,-6.095541E-1,-1.4480045E-1,-3.2548922E-1,-3.491469E-1,1.6753104E-1,1.9682246E0,-1.0824709E0,2.2906756E0,-1.17387295E-1,1.2223871E-1,-1.4364193E-1,-2.3983415E-2,-7.602531E-2,-1.496966E0,3.467015E-2,1.0980979E-1,-1.8117766E-1,3.2609165E-2,3.578656E-2,-1.7009185E-1,-7.792547E-2,-1.7657762E-2,4.008222E-2,9.111912E-2,1.7023034E-2,-1.2997918E-1,4.7589775E-2,-1.4336292E-1,5.1297642E-2,-7.134857E-2,-6.390652E-2,-1.176159E-1,-9.670644E-2,-2.870891E-2,3.6281295E-2,-1.2111267E-1,-1.4788654E-1,-5.8703072E-2,5.6815233E-2,-4.479039E-2,-7.028729E-2,-1.56771E-1,-1.4216238E-1,1.09885745E-1,8.3495E-2,-1.5758596E-2,7.600602E-2,-1.5330397E-1,1.08970426E-1,-1.7535405E-1,1.3431783E-1,-1.578348E-1,1.0081862E-2,1.2261086E-1,4.7846373E-2,-2.2779946E-1,1.2160939E-1,-9.878868E-2,8.181854E-2,1.3159834E-1],"split_indices":[11,12,14,9,1,8,3,14,14,13,9,25,8,21,7,16,2,17,1,8,4,6,17,13,0,9,17,17,0,5,0,1,3,4,1,14,15,13,0,5,4,0,0,1,0,5,0,0,25,16,5,14,21,0,0,0,0,0,4,0,0,0,0,0,0,0,0,0,0,0,0,0,0,0,0,0,0,0,0,0,0,0,0,0,0,0,0,0,0,0,0,0,0,0,0,0,0,0,0,0,0,0,0,0,0],"split_type":[0,0,0,0,0,0,0,0,0,0,0,0,0,0,0,0,0,0,0,0,0,0,0,0,0,0,0,0,0,0,0,0,0,0,0,0,0,0,0,0,0,0,0,0,0,0,0,0,0,0,0,0,0,0,0,0,0,0,0,0,0,0,0,0,0,0,0,0,0,0,0,0,0,0,0,0,0,0,0,0,0,0,0,0,0,0,0,0,0,0,0,0,0,0,0,0,0,0,0,0,0,0,0,0,0],"sum_hessian":[3.1563127E4,2.6201604E4,5.3615234E3,1.994215E4,6.259452E3,5.153292E3,2.0823177E2,1.2907327E4,7.0348237E3,5.173716E3,1.0857365E3,5.1960223E2,4.6336895E3,1.6813663E2,4.0095135E1,2.0164968E3,1.089083E4,6.2059985E3,8.288253E2,4.1677305E3,1.00598535E3,8.606529E2,2.2508357E2,4.8754495E2,3.2057297E1,2.9865137E3,1.6471759E3,1.3309859E1,1.5482677E2,3.2719875E1,7.3752565E0,1.9484514E3,6.8045425E1,1.6864937E3,9.204336E3,5.5742334E3,6.3176526E2,3.3256754E2,4.962578E2,1.7460608E3,2.4216697E3,2.2903328E2,7.76952E2,5.732536E2,2.8739926E2,1.9749089E2,2.7592684E1,4.3878616E2,4.875878E1,1.3466412E3,1.6398724E3,8.771026E2,7.700733E2,4.7080636E0,8.601795E0,8.713695E1,6.768983E1,1.0816755E0,3.16382E1,1.4785376E3,4.6991376E2,5.5413498E1,1.2631929E1,1.623833E3,6.266067E1,5.703146E3,3.5011904E3,2.399469E3,3.1747644E3,4.9403397E2,1.3773128E2,1.3083101E1,3.1948444E2,2.78582E2,2.176758E2,5.573215E2,1.1887394E3,8.000927E2,1.621577E3,9.454776E1,1.3448552E2,7.352159E2,4.1736183E1,1.5242857E2,4.2082504E2,1.9678796E2,9.06113E1,1.6213612E1,1.8127728E2,2.9995392E2,1.3883224E2,1.1462287E1,3.7296497E1,1.3195907E3,2.7050495E1,1.6353784E3,4.4940033E0,9.5437744E1,7.8166486E2,7.552855E2,1.4787809E1,8.614844E0,5.9074978E1,8.891964E0,2.2746237E1],"tree_param":{"num_deleted":"0","num_feature":"26","num_nodes":"105","size_leaf_vector":"1"}},{"base_weights":[2.3709903E-4,-1.696166E-1,8.54014E-1,2.8929248E-1,-3.4202763E-1,9.1425616E-1,-6.4274484E-1,3.722429E-1,-1.265022E0,-5.350476E-1,2.4780659E-2,2.2556789E-1,9.935547E-1,-9.485654E-1,6.3181263E-1,5.682232E-1,1.493063E-1,-1.3378699E0,7.1692747E-1,-6.8172014E-1,-1.1665328E-1,-1.6946436E-1,1.1484029E0,-8.644009E-1,4.0528974E-1,1.1424496E0,7.29872E-1,-5.6700295E-1,-1.3701288E-1,1.0627359E0,-1.18660584E-1,6.2255365E-1,-7.921063E-1,1.2533311E0,4.6891544E-2,-1.3991301E-1,4.6093798E-1,-1.12325706E-1,1.509452E-1,-1.138835E0,-5.853759E-1,1.5857832E-1,-5.573101E-1,9.1345794E-2,-5.951039E-1,1.2331076E0,-1.8148784E-1,-1.4696929E-1,1.0555102E0,-1.057043E0,5.525755E-1,9.743494E-1,1.2820078E0,8.8288105E-1,-2.2791633E-2,-1.1949748E-1,-1.3495302E-1,1.153041E0,-7.799091E-2,-1.1191628E-1,6.5789126E-2,-2.618131E-2,-2.3463535E-1,-2.0335548E-1,1.456982E-1,-7.5312494E-3,7.204733E-2,-1.118508E-1,1.2528683E-1,-1.195864E-1,3.6228925E-2,-3.7700087E-2,-8.169245E-2,3.7331533E-2,-5.1052004E-2,-1.1478857E-1,-3.6538716E-2,-1.4035751E-2,8.927517E-2,-2.2144625E-2,-1.1082666E-1,-2.0864938E-1,1.2668681E-1,1.3358612E-1,-9.108756E-2,1.3000892E-1,-1.7855161E-1,6.342885E-2,-1.6205391E-1,1.0300268E-1,-1.6260062E-1,1.2908909E-1,-1.4641206E-1,1.1333205E-1,5.287699E-2,-2.2427738E-1,1.972964E-2,-1.338046E-1,3.751078E-2,1.3052303E-1,6.899559E-2],"categories":[],"categories_nodes":[],"categories_segments":[],"categories_sizes":[],"default_left":[0,0,0,0,0,0,0,0,0,0,0,0,0,0,0,0,0,0,0,0,0,0,0,0,0,0,0,0,0,0,0,0,0,0,0,0,0,0,0,0,0,0,0,0,0,0,0,0,0,0,0,0,0,0,0,0,0,0,0,0,0,0,0,0,0,0,0,0,0,0,0,0,0,0,0,0,0,0,0,0,0,0,0,0,0,0,0,0,0,0,0,0,0,0,0,0,0,0,0,0,0],"id":7,"left_children":[1,3,5,7,9,11,13,15,17,19,21,23,25,27,29,31,33,35,37,39,41,43,45,47,49,51,53,55,-1,57,-1,59,61,63,65,-1,67,-1,-1,69,71,73,75,77,79,81,-1,-1,83,85,87,89,91,93,95,97,-1,99,-1,-1,-1,-1,-1,-1,-1,-1,-1,-1,-1,-1,-1,-1,-1,-1,-1,-1,-1,-1,-1,-1,-1,-1,-1,-1,-1,-1,-1,-1,-1,-1,-1,-1,-1,-1,-1,-1,-1,-1,-1,-1,-1],"loss_changes":[4.488792E3,2.0427913E3,4.637085E2,9.095831E2,1.3287539E3,2.6944336E2,7.828858E1,2.9241376E2,5.2570557E1,7.545249E2,1.4126691E3,1.0048125E2,1.7300342E2,2.5143448E1,3.1954155E1,2.6377893E2,3.5421912E2,3.867798E1,2.112744E1,4.0030322E2,3.87343E2,6.1267847E2,2.4169482E2,8.600406E1,9.524041E1,6.509619E1,1.8436249E2,3.0056425E1,0E0,6.2561874E0,0E0,2.1160803E2,1.1251168E2,1.8098215E2,2.3616138E2,0E0,1.6560266E1,0E0,0E0,1.3602222E2,3.6260864E2,2.8269275E2,1.3874603E2,6.3568396E2,4.01823E2,1.0665491E2,0E0,0E0,1.1140663E1,7.196307E1,7.20434E1,1.8800903E2,3.9506104E1,1.1737512E2,1.3304808E2,3.4249443E1,0E0,1.2907372E0,0E0,0E0,0E0,0E0,0E0,0E0,0E0,0E0,0E0,0E0,0E0,0E0,0E0,0E0,0E0,0E0,0E0,0E0,0E0,0E0,0E0,0E0,0E0,0E0,0E0,0E0,0E0,0E0,0E0,0E0,0E0,0E0,0E0,0E0,0E0,0E0,0E0,0E0,0E0,0E0,0E0,0E0,0E0],"parents":[2147483647,0,0,1,1,2,2,3,3,4,4,5,5,6,6,7,7,8,8,9,9,10,10,11,11,12,12,13,13,14,14,15,15,16,16,17,17,18,18,19,19,20,20,21,21,22,22,23,23,24,24,25,25,26,26,27,27,29,29,31,31,32,32,33,33,34,34,36,36,39,39,40,40,41,41,42,42,43,43,44,44,45,45,48,48,49,49,50,50,51,51,52,52,53,53,54,54,55,55,57,57],"right_children":[2,4,6,8,10,12,14,16,18,20,22,24,26,28,30,32,34,36,38,40,42,44,46,48,50,52,54,56,-1,58,-1,60,62,64,66,-1,68,-1,-1,70,72,74,76,78,80,82,-1,-1,84,86,88,90,92,94,96,98,-1,100,-1,-1,-1,-1,-1,-1,-1,-1,-1,-1,-1,-1,-1,-1,-1,-1,-1,-1,-1,-1,-1,-1,-1,-1,-1,-1,-1,-1,-1,-1,-1,-1,-1,-1,-1,-1,-1,-1,-1,-1,-1,-1,-1],"split_conditions":[-1.0710549E-1,-2.891409E-1,-2.1465991E-1,-5.210789E-2,-1.1351276E-1,-1.2062141E-1,1.476072E0,-8.3839905E-1,2.0436063E0,1.4686008E-1,-1.2062141E-1,-8.8685656E-1,3.4075564E-1,-4.5116386E-1,3.6382598E-1,3.6382598E-1,-1.7765216E0,7.31697E-1,1.309005E-1,7.836525E-1,-1.4582375E-1,-5.146712E-1,1.4466494E-1,1.7329397E0,-5.375274E-1,-8.282142E-2,8.805743E-1,-4.6010906E-1,-1.3701288E-1,1.9714926E0,-1.18660584E-1,-1.7591041E0,-4.3401012E-1,-1.1737228E-1,2.1898997E0,-1.3991301E-1,1.5313524E0,-1.12325706E-1,1.509452E-1,7.031924E-1,-1.4582375E-1,-3.2046393E-1,5.1550704E-1,-1.299528E-1,-4.2731962E-1,-5.617964E-1,-1.8148784E-1,-1.4696929E-1,-5.146712E-1,-1.1726352E0,1.1151582E0,1.6753104E-1,1.9682246E0,-2.906974E-1,-3.6833477E-1,-4.7772726E-1,-1.3495302E-1,5.59979E-1,-7.799091E-2,-1.1191628E-1,6.5789126E-2,-2.618131E-2,-2.3463535E-1,-2.0335548E-1,1.456982E-1,-7.5312494E-3,7.204733E-2,-1.118508E-1,1.2528683E-1,-1.195864E-1,3.6228925E-2,-3.7700087E-2,-8.169245E-2,3.7331533E-2,-5.1052004E-2,-1.1478857E-1,-3.6538716E-2,-1.4035751E-2,8.927517E-2,-2.2144625E-2,-1.1082666E-1,-2.0864938E-1,1.2668681E-1,1.3358612E-1,-9.108756E-2,1.3000892E-1,-1.7855161E-1,6.342885E-2,-1.6205391E-1,1.0300268E-1,-1.6260062E-1,1.2908909E-1,-1.4641206E-1,1.1333205E-1,5.287699E-2,-2.2427738E-1,1.972964E-2,-1.338046E-1,3.751078E-2,1.3052303E-1,6.899559E-2],"split_indices":[11,15,14,12,11,8,3,14,17,1,8,23,8,3,7,7,5,0,0,23,12,2,2,19,1,9,4,1,0,25,0,5,1,8,14,0,3,0,0,0,12,13,1,1,6,1,0,0,2,19,4,16,5,17,14,0,0,13,0,0,0,0,0,0,0,0,0,0,0,0,0,0,0,0,0,0,0,0,0,0,0,0,0,0,0,0,0,0,0,0,0,0,0,0,0,0,0,0,0,0,0],"split_type":[0,0,0,0,0,0,0,0,0,0,0,0,0,0,0,0,0,0,0,0,0,0,0,0,0,0,0,0,0,0,0,0,0,0,0,0,0,0,0,0,0,0,0,0,0,0,0,0,0,0,0,0,0,0,0,0,0,0,0,0,0,0,0,0,0,0,0,0,0,0,0,0,0,0,0,0,0,0,0,0,0,0,0,0,0,0,0,0,0,0,0,0,0,0,0,0,0,0,0,0,0],"sum_hessian":[3.0951523E4,2.5816324E4,5.1351987E3,7.0501514E3,1.8766174E4,4.936886E3,1.9831264E2,6.6936846E3,3.56467E2,1.2295592E4,6.470581E3,5.1015573E2,4.4267305E3,1.6014322E2,3.816941E1,3.5613796E3,3.132305E3,3.441428E2,1.2324226E1,9.103601E3,3.1919917E3,5.5175835E3,9.529973E2,7.167215E1,4.3848358E2,2.8270405E3,1.59969E3,8.5290596E1,7.485263E1,3.1192966E1,6.9764442E0,3.4251252E3,1.362544E2,2.6494766E2,2.8673572E3,3.3302353E2,1.1119273E1,3.584338E0,8.739888E0,1.5828394E3,7.5207607E3,1.9651876E3,1.2268042E3,3.4217163E3,2.0958674E3,9.270808E2,2.5916492E1,5.46706E1,1.7001545E1,3.955759E1,3.98926E2,1.2860061E3,1.5410344E3,1.3292863E3,2.7040378E2,5.4993855E1,3.0296741E1,3.0092432E1,1.100535E0,6.750048E1,3.3576248E3,1.0246339E2,3.3791004E1,1.49337845E1,2.5001387E2,2.4277861E3,4.39571E2,3.575608E0,7.5436654E0,1.5251027E3,5.7736652E1,3.9598462E3,3.5609148E3,1.4880596E3,4.7712805E2,2.9967587E2,9.271283E2,2.6549417E3,7.6677466E2,1.2136117E3,8.822557E2,8.721413E0,9.183594E2,1.5160708E1,1.8408372E0,9.153806E0,3.0403786E1,3.851517E2,1.377427E1,1.2596393E3,2.6366846E1,1.5365939E3,4.440561E0,7.77331E2,5.519552E2,2.3560776E1,2.46843E2,1.5384964E1,3.960889E1,2.1280281E1,8.812151E0],"tree_param":{"num_deleted":"0","num_feature":"26","num_nodes":"101","size_leaf_vector":"1"}},{"base_weights":[3.1724584E-4,-1.5524943E-1,8.064388E-1,3.031575E-1,-2.9990694E-1,8.632644E-1,-6.124513E-1,3.6976415E-1,-1.1679796E0,-1.6714525E-1,-6.9199777E-1,2.0681791E-1,9.4083345E-1,-9.027946E-1,6.0024285E-1,3.477186E-2,4.9584565E-1,-1.2574441E0,7.7675927E-1,-3.646356E-1,3.5571358E-1,-5.607966E-1,-1.0831132E0,3.155044E-1,-1.4622359E-1,1.0929447E0,6.78759E-1,-5.3288364E-1,-1.3249764E-1,1.0116588E0,-1.14299856E-1,3.7140733E-1,-4.4560975E-1,9.996234E-1,2.8480852E-1,-1.3331239E-1,5.4009676E-1,-1.0219329E-1,1.4186595E-1,2.4140488E-1,-4.7548586E-1,6.874225E-1,-2.550619E-1,-6.314139E-1,4.568188E-1,5.795723E-1,-1.1569402E0,4.4854963E-1,-9.135308E-1,9.224294E-1,1.2371072E0,9.925096E-1,3.4533596E-1,-1.1232271E-1,-1.301059E-1,-7.606798E-2,1.10207E0,-2.3487762E-3,7.8355454E-2,-1.7058253E-1,2.188108E-3,1.8510596E-1,8.928259E-2,-1.295513E-1,3.424096E-2,1.2014301E-1,-1.0191145E-1,5.9969135E-2,-1.7993933E-2,-6.753181E-2,-6.1594266E-3,7.7819854E-2,-7.054474E-2,2.8907327E-2,-5.034804E-2,-6.666114E-2,9.450524E-2,1.6618183E-1,-9.218282E-3,1.5169172E-1,-1.3908558E-1,-1.3100956E-1,-6.4617455E-2,-2.0898668E-2,7.176484E-2,6.786648E-2,-1.4387281E-1,9.850835E-2,-1.168887E-1,1.2459298E-1,-1.370251E-1,3.5448966E-3,1.11687794E-1,-1.3235438E-2,6.43512E-2,-1.2880112E-1,3.3922963E-2,1.20360725E-1,7.449663E-2],"categories":[],"categories_nodes":[],"categories_segments":[],"categories_sizes":[],"default_left":[0,0,0,0,0,0,0,0,0,0,0,0,0,0,0,0,0,0,0,0,0,0,0,0,0,0,0,0,0,0,0,0,0,0,0,0,0,0,0,0,0,0,0,0,0,0,0,0,0,0,0,0,0,0,0,0,0,0,0,0,0,0,0,0,0,0,0,0,0,0,0,0,0,0,0,0,0,0,0,0,0,0,0,0,0,0,0,0,0,0,0,0,0,0,0,0,0,0,0],"id":8,"left_children":[1,3,5,7,9,11,13,15,17,19,21,23,25,27,29,31,33,35,37,39,41,43,45,47,-1,49,51,53,-1,55,-1,57,59,61,63,-1,65,-1,-1,67,69,71,73,75,77,79,81,83,85,87,89,91,93,95,-1,-1,97,-1,-1,-1,-1,-1,-1,-1,-1,-1,-1,-1,-1,-1,-1,-1,-1,-1,-1,-1,-1,-1,-1,-1,-1,-1,-1,-1,-1,-1,-1,-1,-1,-1,-1,-1,-1,-1,-1,-1,-1,-1,-1],"loss_changes":[3.805087E3,1.6866667E3,3.9628003E2,5.9828845E2,1.00628723E3,2.4013232E2,6.72957E1,2.465517E2,4.69989E1,1.491659E3,2.5032788E2,9.1171906E1,1.6751196E2,2.3244926E1,2.7853088E1,2.5849362E2,4.5064258E2,3.5173706E1,1.5595341E1,7.044861E2,8.025895E2,2.6357642E2,1.5132068E2,7.73118E1,0E0,6.44668E1,1.6208649E2,2.6802519E1,0E0,5.749115E0,0E0,1.5297453E2,3.8807324E2,1.12175415E2,2.7267206E2,0E0,1.250923E1,0E0,0E0,2.4495349E2,7.330879E2,3.251089E2,1.8866693E2,1.9075903E2,1.5782156E2,9.971015E1,9.110364E1,7.5356064E1,3.96658E1,1.6187927E2,3.490918E1,9.511249E1,1.0752148E2,2.9634907E1,0E0,0E0,1.7544937E-1,0E0,0E0,0E0,0E0,0E0,0E0,0E0,0E0,0E0,0E0,0E0,0E0,0E0,0E0,0E0,0E0,0E0,0E0,0E0,0E0,0E0,0E0,0E0,0E0,0E0,0E0,0E0,0E0,0E0,0E0,0E0,0E0,0E0,0E0,0E0,0E0,0E0,0E0,0E0,0E0,0E0,0E0],"parents":[2147483647,0,0,1,1,2,2,3,3,4,4,5,5,6,6,7,7,8,8,9,9,10,10,11,11,12,12,13,13,14,14,15,15,16,16,17,17,18,18,19,19,20,20,21,21,22,22,23,23,25,25,26,26,27,27,29,29,31,31,32,32,33,33,34,34,36,36,39,39,40,40,41,41,42,42,43,43,44,44,45,45,46,46,47,47,48,48,49,49,50,50,51,51,52,52,53,53,56,56],"right_children":[2,4,6,8,10,12,14,16,18,20,22,24,26,28,30,32,34,36,38,40,42,44,46,48,-1,50,52,54,-1,56,-1,58,60,62,64,-1,66,-1,-1,68,70,72,74,76,78,80,82,84,86,88,90,92,94,96,-1,-1,98,-1,-1,-1,-1,-1,-1,-1,-1,-1,-1,-1,-1,-1,-1,-1,-1,-1,-1,-1,-1,-1,-1,-1,-1,-1,-1,-1,-1,-1,-1,-1,-1,-1,-1,-1,-1,-1,-1,-1,-1,-1,-1],"split_conditions":[-1.0710549E-1,-3.365746E-1,-2.1465991E-1,-5.210789E-2,-1.4582375E-1,-1.2062141E-1,1.476072E0,-4.2548785E-1,2.0436063E0,-1.24630965E-1,7.7715164E-1,6.4671814E-1,3.4075564E-1,-4.5116386E-1,3.6382598E-1,-1.1799606E0,-2.9234558E-1,7.31697E-1,1.309005E-1,-1.1740073E0,-3.0578986E-1,1.5741501E0,-3.8715625E-1,-4.3785632E-1,-1.4622359E-1,-8.282142E-2,-3.2928094E-1,-4.6010906E-1,-1.3249764E-1,-5.5178374E-1,-1.14299856E-1,-3.2928094E-1,-9.8975736E-1,-1.456465E0,-6.410172E-2,-1.3331239E-1,-3.484714E-1,-1.0219329E-1,1.4186595E-1,-4.2731962E-1,-3.608085E-3,1.001851E0,-1.2679523E0,1.5420204E0,-2.1799037E-1,-2.9234558E-1,-1.0233254E-1,-1.24630965E-1,-3.491469E-1,-1.9675447E-1,1.9682246E0,-1.0824709E0,1.0651897E-2,-4.7772726E-1,-1.301059E-1,-7.606798E-2,5.59979E-1,-2.3487762E-3,7.8355454E-2,-1.7058253E-1,2.188108E-3,1.8510596E-1,8.928259E-2,-1.295513E-1,3.424096E-2,1.2014301E-1,-1.0191145E-1,5.9969135E-2,-1.7993933E-2,-6.753181E-2,-6.1594266E-3,7.7819854E-2,-7.054474E-2,2.8907327E-2,-5.034804E-2,-6.666114E-2,9.450524E-2,1.6618183E-1,-9.218282E-3,1.5169172E-1,-1.3908558E-1,-1.3100956E-1,-6.4617455E-2,-2.0898668E-2,7.176484E-2,6.786648E-2,-1.4387281E-1,9.850835E-2,-1.168887E-1,1.2459298E-1,-1.370251E-1,3.5448966E-3,1.11687794E-1,-1.3235438E-2,6.43512E-2,-1.2880112E-1,3.3922963E-2,1.20360725E-1,7.449663E-2],"split_indices":[11,15,14,12,12,8,3,4,17,9,16,25,8,3,7,4,4,0,0,2,13,3,17,13,0,9,17,1,0,19,0,17,4,3,4,0,1,0,0,6,1,17,0,17,15,4,9,9,25,16,5,14,0,0,0,0,13,0,0,0,0,0,0,0,0,0,0,0,0,0,0,0,0,0,0,0,0,0,0,0,0,0,0,0,0,0,0,0,0,0,0,0,0,0,0,0,0,0,0],"split_type":[0,0,0,0,0,0,0,0,0,0,0,0,0,0,0,0,0,0,0,0,0,0,0,0,0,0,0,0,0,0,0,0,0,0,0,0,0,0,0,0,0,0,0,0,0,0,0,0,0,0,0,0,0,0,0,0,0,0,0,0,0,0,0,0,0,0,0,0,0,0,0,0,0,0,0,0,0,0,0,0,0,0,0,0,0,0,0,0,0,0,0,0,0,0,0,0,0,0,0],"sum_hessian":[3.034023E4,2.5432945E4,4.9072847E3,6.100356E3,1.933259E4,4.718696E3,1.8858894E2,5.8368384E3,2.635178E2,1.4443468E4,4.8891216E3,4.9904828E2,4.2196475E3,1.5236522E2,3.6223732E1,1.5964432E3,4.240395E3,2.5226611E2,1.1251687E1,1.0483878E4,3.9595894E3,3.6628418E3,1.2262799E3,4.6929913E2,2.9749147E1,2.6679595E3,1.551688E3,8.2415695E1,6.994952E1,2.9646612E1,6.5771194E0,9.3879425E2,6.576489E2,1.2508025E3,2.9895928E3,2.4232228E2,9.943844E0,2.8035934E0,8.448093E0,1.6209028E3,8.862976E3,2.565924E3,1.3936653E3,3.4255088E3,2.3733295E2,5.184348E1,1.1744364E3,4.2403195E2,4.526717E1,1.2256533E3,1.4423063E3,7.984092E2,7.532789E2,5.3998695E1,2.8417004E1,1.0791135E0,2.85675E1,4.79913E2,4.5888126E2,1.7723296E2,4.80416E2,1.3758476E2,1.1132177E3,1.04379715E2,2.885213E3,7.1434436E0,2.8004007E0,8.7577325E2,7.451296E2,5.976711E3,2.8862642E3,2.4093438E3,1.5658029E2,4.3677994E2,9.568854E2,3.351263E3,7.4246025E1,7.3650665E1,1.6368228E2,3.528727E1,1.6556211E1,9.023099E2,2.7212656E2,1.2320555E2,3.0082642E2,1.1155569E1,3.41116E1,1.1905154E3,3.513789E1,1.4379626E3,4.3435826E0,9.196773E1,7.064414E2,2.8970908E2,4.635698E2,1.447037E1,3.9528324E1,2.0397345E1,8.170156E0],"tree_param":{"num_deleted":"0","num_feature":"26","num_nodes":"99","size_leaf_vector":"1"}},{"base_weights":[3.7862474E-4,-1.421485E-1,7.620235E-1,-1.08152805E-2,-5.777928E-1,8.1562316E-1,-5.849064E-1,-2.2405829E-1,3.810968E-1,-4.584716E-1,-9.5996857E-1,1.8904527E-1,8.91988E-1,-8.612427E-1,5.708355E-1,-6.8409437E-1,-7.642388E-2,5.002242E-1,-5.008657E-1,-8.136588E-1,-2.558077E-1,-5.50753E-1,-1.1961931E0,4.7780237E-1,-3.9005014E-1,1.0448183E0,6.2571543E-1,-5.016286E-1,-1.2863033E-1,9.639636E-1,-1.1040341E-1,7.127068E-1,-7.981277E-1,1.7771272E-2,-8.107239E-1,3.8813812E-1,9.901264E-1,-9.723205E-1,3.1318516E-1,-8.678917E-1,1.5750076E0,-3.3553532E-1,7.956556E-1,-1.3843751E-1,-7.927617E-2,-1.3303156E0,-9.177798E-1,6.665356E-1,-1.3792686E-1,-1.5467617E-1,8.819607E-2,8.740396E-1,1.1881412E0,7.7724165E-1,-6.5906316E-2,-1.0576597E-1,-1.259291E-1,1.0577712E0,-7.649856E-2,1.0123972E-1,-5.0234343E-3,-1.2361423E-2,-9.416972E-2,4.8727814E-2,-1.3746314E-2,6.5475605E-2,-1.1308508E-1,8.781823E-3,6.421428E-2,3.877207E-2,1.1335738E-1,-1.1108714E-1,5.3263742E-2,6.73787E-2,-1.2782438E-1,1.0470933E-1,-9.216507E-2,2.6879248E-1,-1.2787586E-1,-2.9232422E-2,-1.4622901E-1,1.2677036E-1,-1.3074792E-2,4.3696366E-2,-1.3539253E-1,-1.3905595E-1,-5.2742273E-2,7.539234E-2,-1.1272909E-1,7.7955596E-2,-2.0488723E-1,-1.8393905E-1,3.9853334E-2,9.254778E-2,-1.4615183E-1,1.1966471E-1,-1.2915066E-1,8.4847026E-2,-4.1892707E-2,2.6425464E-2,-1.3703483E-1,-1.370524E-1,3.0429987E-2,1.2202052E-1,6.0231842E-2],"categories":[],"categories_nodes":[],"categories_segments":[],"categories_sizes":[],"default_left":[0,0,0,0,0,0,0,0,0,0,0,0,0,0,0,0,0,0,0,0,0,0,0,0,0,0,0,0,0,0,0,0,0,0,0,0,0,0,0,0,0,0,0,0,0,0,0,0,0,0,0,0,0,0,0,0,0,0,0,0,0,0,0,0,0,0,0,0,0,0,0,0,0,0,0,0,0,0,0,0,0,0,0,0,0,0,0,0,0,0,0,0,0,0,0,0,0,0,0,0,0,0,0,0,0],"id":9,"left_children":[1,3,5,7,9,11,13,15,17,19,21,23,25,27,29,31,33,35,37,39,41,43,45,47,49,51,53,55,-1,57,-1,59,61,63,65,67,69,71,73,75,77,79,81,-1,83,85,87,89,-1,-1,91,93,95,97,99,101,-1,103,-1,-1,-1,-1,-1,-1,-1,-1,-1,-1,-1,-1,-1,-1,-1,-1,-1,-1,-1,-1,-1,-1,-1,-1,-1,-1,-1,-1,-1,-1,-1,-1,-1,-1,-1,-1,-1,-1,-1,-1,-1,-1,-1,-1,-1,-1,-1],"loss_changes":[3.228816E3,1.4335061E3,3.389673E2,1.6090533E3,2.6421655E2,2.1560669E2,5.7984653E1,8.4679944E2,7.130664E2,3.182984E2,1.3273657E2,8.231834E1,1.6291284E2,2.1623116E1,2.4332153E1,4.8306702E2,6.530029E2,3.278546E2,3.1034216E2,2.0954614E2,2.3656032E2,1.9911957E2,3.1417358E1,1.1594793E2,9.084606E1,6.142993E1,1.5391699E2,2.4027586E1,0E0,5.5376377E0,0E0,5.244832E1,2.7113538E2,6.099796E2,5.0430212E2,3.711565E2,9.5682495E1,1.07310455E2,1.7131694E2,1.6279651E2,1.1787283E2,1.27171814E2,8.717307E1,0E0,2.1434454E2,2.7691284E1,1.0150668E2,9.323331E1,0E0,0E0,7.0696396E1,1.4171179E2,3.0753784E1,1.0297388E2,1.14396225E2,2.8424267E1,0E0,1.3419456E0,0E0,0E0,0E0,0E0,0E0,0E0,0E0,0E0,0E0,0E0,0E0,0E0,0E0,0E0,0E0,0E0,0E0,0E0,0E0,0E0,0E0,0E0,0E0,0E0,0E0,0E0,0E0,0E0,0E0,0E0,0E0,0E0,0E0,0E0,0E0,0E0,0E0,0E0,0E0,0E0,0E0,0E0,0E0,0E0,0E0,0E0,0E0],"parents":[2147483647,0,0,1,1,2,2,3,3,4,4,5,5,6,6,7,7,8,8,9,9,10,10,11,11,12,12,13,13,14,14,15,15,16,16,17,17,18,18,19,19,20,20,21,21,22,22,23,23,24,24,25,25,26,26,27,27,29,29,31,31,32,32,33,33,34,34,35,35,36,36,37,37,38,38,39,39,40,40,41,41,42,42,44,44,45,45,46,46,47,47,50,50,51,51,52,52,53,53,54,54,55,55,57,57],"right_children":[2,4,6,8,10,12,14,16,18,20,22,24,26,28,30,32,34,36,38,40,42,44,46,48,50,52,54,56,-1,58,-1,60,62,64,66,68,70,72,74,76,78,80,82,-1,84,86,88,90,-1,-1,92,94,96,98,100,102,-1,104,-1,-1,-1,-1,-1,-1,-1,-1,-1,-1,-1,-1,-1,-1,-1,-1,-1,-1,-1,-1,-1,-1,-1,-1,-1,-1,-1,-1,-1,-1,-1,-1,-1,-1,-1,-1,-1,-1,-1,-1,-1,-1,-1,-1,-1,-1,-1],"split_conditions":[-1.0710549E-1,-1.4582375E-1,-2.1465991E-1,-1.24630965E-1,7.7715164E-1,-1.2062141E-1,1.476072E0,-3.0328506E-1,3.5484102E-1,-3.482287E-1,-6.348375E-1,-3.2548922E-1,6.104338E-1,-4.5116386E-1,3.6382598E-1,-1.1740073E0,-3.900488E-1,-1.1412314E-1,9.3468145E-2,7.1767646E-1,1.5741501E0,-1.2045825E0,1.0503236E0,-5.146712E-1,-2.598584E-1,-8.282142E-2,8.805743E-1,-4.6010906E-1,-1.2863033E-1,1.9714926E0,-1.1040341E-1,-2.4959856E-1,-8.8685656E-1,-2.1799037E-1,-1.456465E0,2.1576762E-1,-3.6833477E-1,1.5741501E0,6.165506E-1,-1.793939E0,-1.5307782E0,1.9856421E0,-3.6571017E-1,-1.3843751E-1,-2.8255546E-2,3.0520775E0,1.1220989E0,-1.1069445E-1,-1.3792686E-1,-1.5467617E-1,-2.2670152E-3,1.6753104E-1,1.9682246E0,7.141108E-1,1.4552869E-1,1.1909631E0,-1.259291E-1,5.59979E-1,-7.649856E-2,1.0123972E-1,-5.0234343E-3,-1.2361423E-2,-9.416972E-2,4.8727814E-2,-1.3746314E-2,6.5475605E-2,-1.1308508E-1,8.781823E-3,6.421428E-2,3.877207E-2,1.1335738E-1,-1.1108714E-1,5.3263742E-2,6.73787E-2,-1.2782438E-1,1.0470933E-1,-9.216507E-2,2.6879248E-1,-1.2787586E-1,-2.9232422E-2,-1.4622901E-1,1.2677036E-1,-1.3074792E-2,4.3696366E-2,-1.3539253E-1,-1.3905595E-1,-5.2742273E-2,7.539234E-2,-1.1272909E-1,7.7955596E-2,-2.0488723E-1,-1.8393905E-1,3.9853334E-2,9.254778E-2,-1.4615183E-1,1.1966471E-1,-1.2915066E-1,8.4847026E-2,-4.1892707E-2,2.6425464E-2,-1.3703483E-1,-1.370524E-1,3.0429987E-2,1.2202052E-1,6.0231842E-2],"split_indices":[11,12,14,9,16,8,3,19,14,1,3,0,8,3,7,2,16,8,1,16,3,3,3,2,14,9,4,1,0,25,0,6,23,15,3,3,14,3,3,5,0,5,5,0,15,16,3,9,0,0,0,16,5,7,0,13,0,13,0,0,0,0,0,0,0,0,0,0,0,0,0,0,0,0,0,0,0,0,0,0,0,0,0,0,0,0,0,0,0,0,0,0,0,0,0,0,0,0,0,0,0,0,0,0,0],"split_type":[0,0,0,0,0,0,0,0,0,0,0,0,0,0,0,0,0,0,0,0,0,0,0,0,0,0,0,0,0,0,0,0,0,0,0,0,0,0,0,0,0,0,0,0,0,0,0,0,0,0,0,0,0,0,0,0,0,0,0,0,0,0,0,0,0,0,0,0,0,0,0,0,0,0,0,0,0,0,0,0,0,0,0,0,0,0,0,0,0,0,0,0,0,0,0,0,0,0,0,0,0,0,0,0,0],"sum_hessian":[2.9741582E4,2.505402E4,4.687562E3,1.925136E4,5.8026606E3,4.508544E3,1.790182E2,1.2467892E4,6.7834673E3,4.423709E3,1.3789517E3,4.901674E2,4.0183765E3,1.4468019E2,3.4338013E1,3.028209E3,9.439683E3,5.976632E3,8.068354E2,1.6060112E3,2.8176978E3,5.059016E2,8.730501E2,3.271927E2,1.6297472E2,2.551175E3,1.4672014E3,7.9554665E1,6.512552E1,2.8154093E1,6.183921E0,2.2816403E2,2.800045E3,8.36731E3,1.0723729E3,4.865283E3,1.1113489E3,5.1080817E2,2.9602722E2,1.57098E3,3.5031307E1,2.619736E3,1.9796167E2,1.820613E2,3.2384033E2,5.866566E2,2.8639352E2,2.9758984E2,2.960283E1,4.701866E1,1.15956055E2,1.1673265E3,1.3838485E3,1.203422E3,2.6377945E2,5.3001892E1,2.655277E1,2.7073374E1,1.08072E0,1.6358095E2,6.458309E1,4.9172046E2,2.3083245E3,2.0785603E3,6.2887495E3,1.9206961E2,8.8030334E2,2.230005E3,2.6352783E3,2.1445413E2,8.968948E2,4.6798584E2,4.282231E1,2.4181174E2,5.4215496E1,4.2392933E1,1.528587E3,2.5244514E1,9.786792E0,2.5241926E3,9.554351E1,1.3089555E2,6.706612E1,2.3095819E2,9.2882126E1,5.4502924E2,4.1627373E1,3.1606285E1,2.5478723E2,2.8638297E2,1.1206878E1,1.5396607E1,1.0055945E2,1.1427621E3,2.4564404E1,1.3796334E3,4.2150583E0,1.1360632E3,6.735881E1,2.1113701E2,5.2642433E1,1.2403578E1,4.0598316E1,1.8718464E1,8.354909E0],"tree_param":{"num_deleted":"0","num_feature":"26","num_nodes":"105","size_leaf_vector":"1"}},{"base_weights":[3.0595207E-4,-1.3018273E-1,7.205635E-1,-9.915719E-3,-5.345015E-1,7.7120066E-1,-5.589623E-1,-2.0407021E-1,3.4792197E-1,-4.2105672E-1,-9.079061E-1,1.7319804E-1,8.458506E-1,-8.215991E-1,5.441213E-1,5.7804952E-3,-4.854791E-1,4.6598086E-1,-3.9663368E-1,-7.590839E-1,-2.3274373E-1,-5.1322037E-1,-1.1418294E0,2.6964778E-1,-1.3841791E-1,1.0069131E0,5.851882E-1,4.1364202E-1,-9.384612E-1,9.209728E-1,-1.068807E-1,-4.8297426E-1,1.4704128E-1,-6.3569766E-1,1.2264723E-1,5.153899E-1,-6.373452E-1,-1.1941242E0,1.00351E-1,-8.108129E-1,1.363365E0,-3.0549005E-1,7.159756E-1,-1.3346833E-1,-7.373673E-2,-1.2785339E0,-8.6381173E-1,-5.4807997E-1,4.6475425E-1,8.2294446E-1,1.1584638E0,9.078092E-1,2.624816E-1,-1.0236762E-1,1.132074E-1,-1.1086072E0,-4.9208708E-2,-7.5682156E-2,1.0169506E0,9.209803E-2,-6.172789E-2,2.4035195E-2,-8.609675E-2,-1.2655941E-2,-7.582959E-2,2.9902974E-2,-1.7624839E-1,2.7573952E-2,7.105992E-2,-9.297829E-2,1.0746261E-1,1.5961277E-1,-1.2712772E-1,6.3482925E-2,-6.8434805E-2,-1.1686492E-1,-5.237886E-2,2.2593291E-1,-1.22781456E-1,4.3297205E-2,-3.6672268E-2,8.910745E-2,-1.4510982E-1,3.8816206E-2,-1.3070743E-1,-1.3404824E-1,-4.8735503E-2,6.645555E-2,-1.06980614E-1,4.0406203E-3,-1.6179661E-1,6.9959864E-2,-3.362467E-2,-3.5049725E-1,8.485289E-2,1.1649938E-1,-2.67848E-1,8.021715E-3,1.0556821E-1,9.5519945E-2,5.3904685E-3,-9.960259E-3,-1.2941378E-1,-1.2047342E-1,1.3551934E-1,6.350007E-2,1.14028215E-1],"categories":[],"categories_nodes":[],"categories_segments":[],"categories_sizes":[],"default_left":[0,0,0,0,0,0,0,0,0,0,0,0,0,0,0,0,0,0,0,0,0,0,0,0,0,0,0,0,0,0,0,0,0,0,0,0,0,0,0,0,0,0,0,0,0,0,0,0,0,0,0,0,0,0,0,0,0,0,0,0,0,0,0,0,0,0,0,0,0,0,0,0,0,0,0,0,0,0,0,0,0,0,0,0,0,0,0,0,0,0,0,0,0,0,0,0,0,0,0,0,0,0,0,0,0,0,0],"id":10,"left_children":[1,3,5,7,9,11,13,15,17,19,21,23,25,27,29,31,33,35,37,39,41,43,45,47,-1,49,51,53,55,57,-1,59,61,63,65,67,69,71,73,75,77,79,81,-1,83,85,87,89,91,93,95,97,99,-1,-1,101,103,-1,105,-1,-1,-1,-1,-1,-1,-1,-1,-1,-1,-1,-1,-1,-1,-1,-1,-1,-1,-1,-1,-1,-1,-1,-1,-1,-1,-1,-1,-1,-1,-1,-1,-1,-1,-1,-1,-1,-1,-1,-1,-1,-1,-1,-1,-1,-1,-1,-1],"loss_changes":[2.7416968E3,1.2009227E3,2.9033203E2,1.3226167E3,2.394674E2,1.920083E2,4.996195E1,7.2879004E2,5.887731E2,2.763766E2,1.2114612E2,7.2317024E1,1.6005835E2,2.0372795E1,2.1327961E1,4.8822025E2,4.8166003E2,3.154231E2,3.6355096E2,1.717168E2,1.9288469E2,1.7769206E2,3.032788E1,7.234685E1,0E0,6.494824E1,1.5215848E2,1.4231438E1,1.9128052E1,5.224949E0,0E0,2.99532E2,5.161907E2,2.6378992E2,3.4802734E2,2.586416E2,1.2525607E2,7.783356E1,2.3775053E2,1.5525763E2,8.94746E1,1.1743198E2,7.684631E1,0E0,1.8387735E2,2.6417908E1,8.75099E1,5.515857E1,6.896339E1,1.2157611E2,3.5531494E1,8.9444885E1,1.0588474E2,0E0,0E0,1.978453E1,3.6375E1,0E0,5.288086E-1,0E0,0E0,0E0,0E0,0E0,0E0,0E0,0E0,0E0,0E0,0E0,0E0,0E0,0E0,0E0,0E0,0E0,0E0,0E0,0E0,0E0,0E0,0E0,0E0,0E0,0E0,0E0,0E0,0E0,0E0,0E0,0E0,0E0,0E0,0E0,0E0,0E0,0E0,0E0,0E0,0E0,0E0,0E0,0E0,0E0,0E0,0E0,0E0],"parents":[2147483647,0,0,1,1,2,2,3,3,4,4,5,5,6,6,7,7,8,8,9,9,10,10,11,11,12,12,13,13,14,14,15,15,16,16,17,17,18,18,19,19,20,20,21,21,22,22,23,23,25,25,26,26,27,27,28,28,29,29,31,31,32,32,33,33,34,34,35,35,36,36,37,37,38,38,39,39,40,40,41,41,42,42,44,44,45,45,46,46,47,47,48,48,49,49,50,50,51,51,52,52,55,55,56,56,58,58],"right_children":[2,4,6,8,10,12,14,16,18,20,22,24,26,28,30,32,34,36,38,40,42,44,46,48,-1,50,52,54,56,58,-1,60,62,64,66,68,70,72,74,76,78,80,82,-1,84,86,88,90,92,94,96,98,100,-1,-1,102,104,-1,106,-1,-1,-1,-1,-1,-1,-1,-1,-1,-1,-1,-1,-1,-1,-1,-1,-1,-1,-1,-1,-1,-1,-1,-1,-1,-1,-1,-1,-1,-1,-1,-1,-1,-1,-1,-1,-1,-1,-1,-1,-1,-1,-1,-1,-1,-1,-1,-1],"split_conditions":[-1.0710549E-1,-1.4582375E-1,-2.1465991E-1,-1.24630965E-1,7.7715164E-1,-1.2062141E-1,1.476072E0,-4.2731962E-1,6.700344E-1,-3.482287E-1,-6.348375E-1,6.4671814E-1,3.4075564E-1,-2.2648273E-1,3.6382598E-1,-3.0328506E-1,4.6235782E-1,2.3262984E-1,-2.0746817E-1,7.1767646E-1,1.5741501E0,-1.2045825E0,1.0503236E0,-4.7928163E-1,-1.3841791E-1,-9.118333E-2,-3.2928094E-1,1.001851E0,4.4836003E-1,-2.0895335E-1,-1.068807E-1,-1.1740073E0,-1.9427352E-1,-1.1740073E0,7.088386E-2,-1.2184366E-1,1.1855757E0,-1.2711968E-1,-7.933694E-1,-1.2062141E-1,-1.5307782E0,-1.0734311E0,2.0891298E-1,-1.3346833E-1,-2.8255546E-2,3.0520775E0,1.1220989E0,-9.252515E-1,-5.146712E-1,-5.9116197E-1,1.1722192E0,-6.30486E-1,-4.1248193E-1,-1.0236762E-1,1.132074E-1,-1.375633E0,7.65491E-1,-7.5682156E-2,-3.484714E-1,9.209803E-2,-6.172789E-2,2.4035195E-2,-8.609675E-2,-1.2655941E-2,-7.582959E-2,2.9902974E-2,-1.7624839E-1,2.7573952E-2,7.105992E-2,-9.297829E-2,1.0746261E-1,1.5961277E-1,-1.2712772E-1,6.3482925E-2,-6.8434805E-2,-1.1686492E-1,-5.237886E-2,2.2593291E-1,-1.22781456E-1,4.3297205E-2,-3.6672268E-2,8.910745E-2,-1.4510982E-1,3.8816206E-2,-1.3070743E-1,-1.3404824E-1,-4.8735503E-2,6.645555E-2,-1.06980614E-1,4.0406203E-3,-1.6179661E-1,6.9959864E-2,-3.362467E-2,-3.5049725E-1,8.485289E-2,1.1649938E-1,-2.67848E-1,8.021715E-3,1.0556821E-1,9.5519945E-2,5.3904685E-3,-9.960259E-3,-1.2941378E-1,-1.2047342E-1,1.3551934E-1,6.350007E-2,1.14028215E-1],"split_indices":[11,12,14,9,16,8,3,6,13,1,3,25,8,21,7,19,1,15,1,16,3,3,3,1,0,9,17,17,0,5,0,2,15,2,16,9,1,8,0,8,0,14,15,0,15,16,3,0,2,1,4,14,19,0,0,19,25,0,1,0,0,0,0,0,0,0,0,0,0,0,0,0,0,0,0,0,0,0,0,0,0,0,0,0,0,0,0,0,0,0,0,0,0,0,0,0,0,0,0,0,0,0,0,0,0,0,0],"split_type":[0,0,0,0,0,0,0,0,0,0,0,0,0,0,0,0,0,0,0,0,0,0,0,0,0,0,0,0,0,0,0,0,0,0,0,0,0,0,0,0,0,0,0,0,0,0,0,0,0,0,0,0,0,0,0,0,0,0,0,0,0,0,0,0,0,0,0,0,0,0,0,0,0,0,0,0,0,0,0,0,0,0,0,0,0,0,0,0,0,0,0,0,0,0,0,0,0,0,0,0,0,0,0,0,0,0,0],"sum_hessian":[2.9169502E4,2.4696135E4,4.4733667E3,1.9035066E4,5.661069E3,4.303455E3,1.6991173E2,1.2340062E4,6.695004E3,4.3435693E3,1.3174999E3,4.7795917E2,3.8254956E3,1.3744272E2,3.246901E1,7.069335E3,5.2707266E3,5.779037E3,9.159668E2,1.5529496E3,2.7906196E3,4.9146774E2,8.2603217E2,4.5086365E2,2.7095522E1,2.3627168E3,1.4627788E3,1.16596575E1,1.2578306E2,2.6667345E1,5.8016663E0,1.5845292E3,5.4848057E3,4.226626E3,1.0441008E3,5.5318438E3,2.4719368E2,3.5112634E2,5.6484045E2,1.5166044E3,3.6345123E1,2.592508E3,1.9811148E2,1.7058362E2,3.2088412E2,5.513353E2,2.746968E2,8.650324E1,3.643604E2,1.0701196E3,1.2925973E3,7.3057983E2,7.3219904E2,3.7441385E0,7.915519E0,1.05374466E2,2.0408598E1,1.0703903E0,2.5596954E1,1.3783302E2,1.4466962E3,5.020796E3,4.6401004E2,8.206361E2,3.4059897E3,9.5553723E2,8.856358E1,2.4843374E3,3.047506E3,2.1151906E2,3.5674633E1,8.917986E0,3.4220834E2,3.3610315E2,2.2873732E2,6.7366595E2,8.429384E2,2.7102009E1,9.243115E0,1.9804352E2,2.3944646E3,1.8384563E2,1.4265855E1,2.3395181E2,8.693231E1,5.106572E2,4.0678146E1,3.2362003E1,2.4233481E2,5.6427677E1,3.0075567E1,2.8185138E2,8.2509026E1,5.4895997E0,1.06463E3,1.2910963E3,1.5008839E0,1.1098402E2,6.195958E2,1.6861655E2,5.635825E2,1.6605057E1,8.876941E1,1.127436E1,9.134238E0,7.748641E0,1.7848314E1],"tree_param":{"num_deleted":"0","num_feature":"26","num_nodes":"107","size_leaf_vector":"1"}},{"base_weights":[2.2567774E-4,-1.1931113E-1,6.8124413E-1,2.1357158E-1,-2.4647246E-1,7.288131E-1,-5.3651357E-1,2.7566078E-1,-1.138216E0,-4.0204453E-1,4.2520612E-2,9.563411E-1,5.3266436E-1,-7.88639E-1,5.187575E-1,3.423801E-1,-3.109308E-1,-1.2086546E0,6.520269E-1,-5.2933264E-1,-5.6181397E-2,-1.0763293E-1,1.004162E0,5.507921E-1,1.095456E0,7.942418E-1,1.0026593E-1,-4.4156262E-1,-1.22609295E-1,8.801519E-1,-1.03660956E-1,3.067692E-1,1.1812942E0,-8.8290733E-1,3.7209988E-1,-1.2753674E-1,5.093204E-1,-9.7045414E-2,1.3032472E-1,-9.807195E-1,-4.3903568E-1,1.1928949E-1,-5.6185097E-1,-3.3366498E-1,3.0464223E-1,1.0892653E0,-1.7303328E-1,-2.5080225E-1,7.8832763E-1,1.1083559E0,-2.433623E-1,4.846875E-1,9.3631417E-1,3.3884436E-1,-1.204441E0,-4.687218E-2,-1.2303559E-1,9.7886395E-1,-7.5213976E-2,3.8781848E-2,-2.1514833E-2,-4.3799702E-2,1.353074E-1,2.887397E-2,-1.2765028E-1,6.891602E-2,-2.0184937E-1,-1.00827925E-1,1.2110825E-1,-1.0619191E-1,3.5534106E-2,-3.396475E-2,-8.083526E-2,7.8677125E-3,2.0756288E-1,-9.921656E-2,-2.7687639E-2,-6.203566E-3,-7.471558E-2,-9.2556555E-4,8.501114E-2,-2.0050824E-1,1.1239355E-1,-1.268472E-1,6.6267684E-2,8.8938296E-2,-2.510909E-1,-1.1938081E-1,1.117415E-1,8.626728E-2,-2.7904961E-2,9.566942E-2,-1.8808626E-1,5.683855E-2,-3.4716204E-2,-2.0220976E-1,3.7789047E-2,-1.2690288E-1,7.5508624E-2,1.1598921E-1,5.061959E-2],"categories":[],"categories_nodes":[],"categories_segments":[],"categories_sizes":[],"default_left":[0,0,0,0,0,0,0,0,0,0,0,0,0,0,0,0,0,0,0,0,0,0,0,0,0,0,0,0,0,0,0,0,0,0,0,0,0,0,0,0,0,0,0,0,0,0,0,0,0,0,0,0,0,0,0,0,0,0,0,0,0,0,0,0,0,0,0,0,0,0,0,0,0,0,0,0,0,0,0,0,0,0,0,0,0,0,0,0,0,0,0,0,0,0,0,0,0,0,0,0,0],"id":11,"left_children":[1,3,5,7,9,11,13,15,17,19,21,23,25,27,29,31,33,35,37,39,41,43,45,47,49,51,53,55,-1,57,-1,59,61,63,65,-1,67,-1,-1,69,71,73,75,77,79,81,-1,83,85,87,-1,89,91,93,95,97,-1,99,-1,-1,-1,-1,-1,-1,-1,-1,-1,-1,-1,-1,-1,-1,-1,-1,-1,-1,-1,-1,-1,-1,-1,-1,-1,-1,-1,-1,-1,-1,-1,-1,-1,-1,-1,-1,-1,-1,-1,-1,-1,-1,-1],"loss_changes":[2.32922E3,1.0303529E3,2.4787366E2,5.6503284E2,7.918618E2,1.8301074E2,4.329523E1,2.5190106E2,3.807193E1,5.040144E2,8.9018896E2,1.067323E2,2.4995007E2,1.9272636E1,1.8724133E1,1.7222583E2,2.5722336E2,3.3293243E1,1.3777266E1,3.406809E2,2.7346408E2,4.9703717E2,1.9564569E2,9.3104935E1,6.714087E1,6.0114807E1,2.601269E2,2.3083551E1,0E0,4.9664764E0,0E0,2.3456714E2,6.5931305E1,1.6554099E2,2.2907635E2,0E0,1.3320984E1,0E0,0E0,1.5163916E2,2.5577527E2,1.8164394E2,9.708476E1,3.8685733E2,3.234242E2,8.894708E1,0E0,1.0523433E2,1.2780789E2,3.0763062E1,0E0,1.25908394E2,5.593512E1,1.1139477E2,1.6793138E2,5.053352E1,0E0,1.5684052E0,0E0,0E0,0E0,0E0,0E0,0E0,0E0,0E0,0E0,0E0,0E0,0E0,0E0,0E0,0E0,0E0,0E0,0E0,0E0,0E0,0E0,0E0,0E0,0E0,0E0,0E0,0E0,0E0,0E0,0E0,0E0,0E0,0E0,0E0,0E0,0E0,0E0,0E0,0E0,0E0,0E0,0E0,0E0],"parents":[2147483647,0,0,1,1,2,2,3,3,4,4,5,5,6,6,7,7,8,8,9,9,10,10,11,11,12,12,13,13,14,14,15,15,16,16,17,17,18,18,19,19,20,20,21,21,22,22,23,23,24,24,25,25,26,26,27,27,29,29,31,31,32,32,33,33,34,34,36,36,39,39,40,40,41,41,42,42,43,43,44,44,45,45,47,47,48,48,49,49,51,51,52,52,53,53,54,54,55,55,57,57],"right_children":[2,4,6,8,10,12,14,16,18,20,22,24,26,28,30,32,34,36,38,40,42,44,46,48,50,52,54,56,-1,58,-1,60,62,64,66,-1,68,-1,-1,70,72,74,76,78,80,82,-1,84,86,88,-1,90,92,94,96,98,-1,100,-1,-1,-1,-1,-1,-1,-1,-1,-1,-1,-1,-1,-1,-1,-1,-1,-1,-1,-1,-1,-1,-1,-1,-1,-1,-1,-1,-1,-1,-1,-1,-1,-1,-1,-1,-1,-1,-1,-1,-1,-1,-1,-1],"split_conditions":[-1.0710549E-1,-2.891409E-1,-2.1465991E-1,-5.210789E-2,-1.1351276E-1,-2.906974E-1,1.476072E0,1.445702E0,2.0436063E0,1.4686008E-1,-1.2062141E-1,-3.8400832E-1,3.6382598E-1,-4.5116386E-1,3.6382598E-1,-9.462834E-2,7.5029355E-1,7.31697E-1,1.309005E-1,7.836525E-1,-1.2312295E-1,2.078883E0,1.4466494E-1,-8.872048E-2,2.2028213E0,-4.9413037E-1,-5.146712E-1,1.6972178E0,-1.22609295E-1,1.9714926E0,-1.03660956E-1,1.0536891E0,-3.811071E-1,-1.2243414E0,-3.900488E-1,-1.2753674E-1,1.5313524E0,-9.7045414E-2,1.3032472E-1,4.2484655E0,5.20526E-1,1.1090943E1,-8.872048E-2,-5.146712E-1,-3.608085E-3,-5.617964E-1,-1.7303328E-1,2.3025769E-1,7.141108E-1,-8.8685656E-1,-2.433623E-1,3.2040453E-1,8.1672776E-1,8.422453E-1,2.078883E0,1.1909631E0,-1.2303559E-1,5.59979E-1,-7.5213976E-2,3.8781848E-2,-2.1514833E-2,-4.3799702E-2,1.353074E-1,2.887397E-2,-1.2765028E-1,6.891602E-2,-2.0184937E-1,-1.00827925E-1,1.2110825E-1,-1.0619191E-1,3.5534106E-2,-3.396475E-2,-8.083526E-2,7.8677125E-3,2.0756288E-1,-9.921656E-2,-2.7687639E-2,-6.203566E-3,-7.471558E-2,-9.2556555E-4,8.501114E-2,-2.0050824E-1,1.1239355E-1,-1.268472E-1,6.6267684E-2,8.8938296E-2,-2.510909E-1,-1.1938081E-1,1.117415E-1,8.626728E-2,-2.7904961E-2,9.566942E-2,-1.8808626E-1,5.683855E-2,-3.4716204E-2,-2.0220976E-1,3.7789047E-2,-1.2690288E-1,7.5508624E-2,1.1598921E-1,5.061959E-2],"split_indices":[11,15,14,12,11,17,3,5,17,1,8,15,7,3,7,8,3,0,0,23,15,24,2,3,7,16,2,13,0,25,0,6,4,4,16,0,3,0,0,21,6,20,3,2,1,1,0,0,7,23,0,19,6,19,24,13,0,13,0,0,0,0,0,0,0,0,0,0,0,0,0,0,0,0,0,0,0,0,0,0,0,0,0,0,0,0,0,0,0,0,0,0,0,0,0,0,0,0,0,0,0],"split_type":[0,0,0,0,0,0,0,0,0,0,0,0,0,0,0,0,0,0,0,0,0,0,0,0,0,0,0,0,0,0,0,0,0,0,0,0,0,0,0,0,0,0,0,0,0,0,0,0,0,0,0,0,0,0,0,0,0,0,0,0,0,0,0,0,0,0,0,0,0,0,0,0,0,0,0,0,0,0,0,0,0,0,0,0,0,0,0,0,0,0,0,0,0,0,0,0,0,0,0,0,0],"sum_hessian":[2.8610117E4,2.4338832E4,4.271286E3,6.727338E3,1.7611494E4,4.1110967E3,1.6018924E2,6.432674E3,2.9466428E2,1.1448235E4,6.1632583E3,1.9015116E3,2.2095852E3,1.2950142E2,3.0687824E1,5.7761113E3,6.565624E2,2.8382196E2,1.0842335E1,8.3680205E3,3.0802146E3,5.331647E3,8.316112E2,4.8693988E2,1.4145718E3,1.3762141E3,8.3337103E2,7.33304E1,5.6171017E1,2.525408E1,5.433745E0,5.542217E3,2.3389478E2,3.5717117E2,2.9939124E2,2.734605E2,1.0361452E1,2.964996E0,7.877339E0,1.3932782E3,6.9747427E3,2.2872773E3,7.929372E2,3.4437715E3,1.8878756E3,8.070943E2,2.451686E1,1.11297226E2,3.7564267E2,1.4101033E3,4.468425E0,4.3431622E2,9.418979E2,7.05165E2,1.2820604E2,4.95809E1,2.3749495E1,2.419143E1,1.0626516E0,4.7974688E3,7.4474817E2,2.2283966E1,2.1161081E2,8.988115E1,2.6729E2,2.6496155E2,3.4429676E1,3.1381803E0,7.2232714E0,1.313646E3,7.963212E1,5.4972725E3,1.4774705E3,2.2417798E3,4.549771E1,3.1492123E2,4.7801596E2,2.0791145E3,1.364657E3,1.1989221E3,6.889535E2,8.313044E0,7.987813E2,5.2462395E1,5.883483E1,3.6518744E2,1.0455231E1,5.01441E0,1.4050889E3,2.9044232E2,1.4387392E2,9.357886E2,6.10928E0,5.284983E2,1.7666669E2,8.434403E1,4.3862007E1,1.94133E1,3.01676E1,1.6440804E1,7.7506256E0],"tree_param":{"num_deleted":"0","num_feature":"26","num_nodes":"101","size_leaf_vector":"1"}},{"base_weights":[2.922574E-4,-1.09091036E-1,6.431759E-1,-2.1527668E-3,-4.7642192E-1,9.0556777E-1,4.4170728E-1,-1.6888338E-1,3.0701703E-1,-3.7067464E-1,-8.3819336E-1,4.700721E-1,1.061713E0,7.0383495E-1,3.6661312E-2,3.5953152E-1,-2.6595992E-1,4.0414008E-1,-4.135135E-1,-6.877803E-1,-1.9920078E-1,-4.5091298E-1,-1.0745524E0,-2.6729468E-1,7.159662E-1,1.0745572E0,-2.0774484E-1,7.329518E-1,-1.3881485E-1,2.765857E-1,-1.1188234E0,4.1269162E-1,-1.2126433E0,-5.8801122E-2,-5.415591E-1,1.2822066E-1,5.802567E-1,-1.1882395E0,-2.553011E-2,-7.376861E-1,1.246521E0,-2.6589358E-1,6.5814406E-1,-1.2797292E-1,-3.726127E-2,-1.2190875E0,-7.8900784E-1,-1.0998844E0,5.861008E-1,8.167928E-1,-2.2092915E0,-1.15290605E-1,1.0842696E0,5.533081E-1,9.796746E-1,-2.3226078E0,3.3354467E-1,-1.7500024E0,1.8856534E-1,5.3019222E-2,-2.2815226E-2,2.7067328E-2,-1.6302064E-1,1.4226114E-3,-1.0359704E-1,-4.771553E-2,-1.4376198E-1,-3.985107E-2,5.0843287E-2,7.236655E-2,1.5992435E-2,6.64758E-2,-1.2908229E-1,1.635982E-2,-1.3527972E-1,-1.1015983E-1,-4.552378E-2,1.990621E-1,-1.1651677E-1,-2.2592066E-2,-1.36921E-1,-3.472953E-2,1.0102921E-1,-1.08002715E-1,4.9304787E-2,-1.2854694E-1,-4.1618053E-2,6.318552E-2,-9.9718384E-2,4.884604E-2,-2.0077908E-1,9.522482E-2,-1.9312023E-1,-2.4557424E-1,8.5970424E-2,-2.3603897E-1,-8.5579835E-2,7.05989E-2,1.10754155E-1,6.303371E-2,-1.8380788E-1,-2.0548196E-1,1.0146345E-1,-2.5196892E-1,-9.369332E-2,-1.5419716E-2,6.11988E-2,-1.9315743E-1,-4.8717093E-2,9.971746E-2,-1.8250343E-1],"categories":[],"categories_nodes":[],"categories_segments":[],"categories_sizes":[],"default_left":[0,0,0,0,0,0,0,0,0,0,0,0,0,0,0,0,0,0,0,0,0,0,0,0,0,0,0,0,0,0,0,0,0,0,0,0,0,0,0,0,0,0,0,0,0,0,0,0,0,0,0,0,0,0,0,0,0,0,0,0,0,0,0,0,0,0,0,0,0,0,0,0,0,0,0,0,0,0,0,0,0,0,0,0,0,0,0,0,0,0,0,0,0,0,0,0,0,0,0,0,0,0,0,0,0,0,0,0,0,0,0],"id":12,"left_children":[1,3,5,7,9,11,13,15,17,19,21,23,25,27,29,31,33,35,37,39,41,43,45,47,49,51,-1,53,-1,55,57,59,61,63,65,67,69,71,73,75,77,79,81,-1,83,85,87,89,91,93,95,-1,97,99,101,103,105,107,109,-1,-1,-1,-1,-1,-1,-1,-1,-1,-1,-1,-1,-1,-1,-1,-1,-1,-1,-1,-1,-1,-1,-1,-1,-1,-1,-1,-1,-1,-1,-1,-1,-1,-1,-1,-1,-1,-1,-1,-1,-1,-1,-1,-1,-1,-1,-1,-1,-1,-1,-1,-1],"loss_changes":[1.9755936E3,9.431155E2,2.1554895E2,9.586644E2,2.0679224E2,1.20085815E2,2.4552432E2,6.198567E2,4.5612872E2,2.277428E2,1.11528625E2,8.537271E1,5.4829346E1,8.65387E1,2.5250623E2,1.5725235E2,5.827342E2,2.789599E2,2.3274936E2,1.4286469E2,1.5578287E2,1.5954526E2,3.0370789E1,8.46403E1,1.05796936E2,2.9371094E1,0E0,6.0861633E1,0E0,1.124164E2,1.2956529E2,1.3678522E2,3.859339E1,4.159251E2,2.5208301E2,4.485004E2,2.1114441E2,4.9976105E1,1.3000941E2,1.4690234E2,6.9355064E1,1.11082E2,6.9998E1,0E0,1.7281763E2,2.6232422E1,7.693558E1,8.777154E1,5.6247932E1,5.0077087E1,4.3772507E-1,0E0,1.0615723E1,1.4925568E2,6.38714E1,2.0896454E0,1.00429344E2,2.3299438E1,8.631438E1,0E0,0E0,0E0,0E0,0E0,0E0,0E0,0E0,0E0,0E0,0E0,0E0,0E0,0E0,0E0,0E0,0E0,0E0,0E0,0E0,0E0,0E0,0E0,0E0,0E0,0E0,0E0,0E0,0E0,0E0,0E0,0E0,0E0,0E0,0E0,0E0,0E0,0E0,0E0,0E0,0E0,0E0,0E0,0E0,0E0,0E0,0E0,0E0,0E0,0E0,0E0,0E0],"parents":[2147483647,0,0,1,1,2,2,3,3,4,4,5,5,6,6,7,7,8,8,9,9,10,10,11,11,12,12,13,13,14,14,15,15,16,16,17,17,18,18,19,19,20,20,21,21,22,22,23,23,24,24,25,25,27,27,29,29,30,30,31,31,32,32,33,33,34,34,35,35,36,36,37,37,38,38,39,39,40,40,41,41,42,42,44,44,45,45,46,46,47,47,48,48,49,49,50,50,52,52,53,53,54,54,55,55,56,56,57,57,58,58],"right_children":[2,4,6,8,10,12,14,16,18,20,22,24,26,28,30,32,34,36,38,40,42,44,46,48,50,52,-1,54,-1,56,58,60,62,64,66,68,70,72,74,76,78,80,82,-1,84,86,88,90,92,94,96,-1,98,100,102,104,106,108,110,-1,-1,-1,-1,-1,-1,-1,-1,-1,-1,-1,-1,-1,-1,-1,-1,-1,-1,-1,-1,-1,-1,-1,-1,-1,-1,-1,-1,-1,-1,-1,-1,-1,-1,-1,-1,-1,-1,-1,-1,-1,-1,-1,-1,-1,-1,-1,-1,-1,-1,-1,-1],"split_conditions":[-1.0710549E-1,-1.4582375E-1,-3.2928094E-1,-1.24630965E-1,7.7715164E-1,-3.8400832E-1,3.6382598E-1,-8.926372E-1,3.5484102E-1,-3.482287E-1,-6.348375E-1,-8.872048E-2,2.2028213E0,1.6972178E0,-5.146712E-1,-3.900488E-1,-4.2731962E-1,-3.433749E-1,-2.8051803E-1,7.1767646E-1,1.5741501E0,-1.2045825E0,1.0503236E0,2.3025769E-1,7.141108E-1,-8.8685656E-1,-2.0774484E-1,-2.5357938E-1,-1.3881485E-1,-1.680829E0,6.15713E-1,2.2433805E-1,-1.6017493E0,1.2356203E0,1.4910565E-1,2.1576762E-1,-6.29353E-2,6.9204545E-1,9.883561E-1,-1.2062141E-1,-1.5307782E0,1.9856421E0,-1.24630965E-1,-1.2797292E-1,-1.1737228E-1,3.0520775E0,1.1220989E0,-8.060389E-1,8.805743E-1,-3.491469E-1,4.638731E-2,-1.15290605E-1,-1.1737228E-1,1.1151582E0,-3.491469E-1,-2.1465991E-1,-4.5072666E-1,1.4516228E0,-4.2731962E-1,5.3019222E-2,-2.2815226E-2,2.7067328E-2,-1.6302064E-1,1.4226114E-3,-1.0359704E-1,-4.771553E-2,-1.4376198E-1,-3.985107E-2,5.0843287E-2,7.236655E-2,1.5992435E-2,6.64758E-2,-1.2908229E-1,1.635982E-2,-1.3527972E-1,-1.1015983E-1,-4.552378E-2,1.990621E-1,-1.1651677E-1,-2.2592066E-2,-1.36921E-1,-3.472953E-2,1.0102921E-1,-1.08002715E-1,4.9304787E-2,-1.2854694E-1,-4.1618053E-2,6.318552E-2,-9.9718384E-2,4.884604E-2,-2.0077908E-1,9.522482E-2,-1.9312023E-1,-2.4557424E-1,8.5970424E-2,-2.3603897E-1,-8.5579835E-2,7.05989E-2,1.10754155E-1,6.303371E-2,-1.8380788E-1,-2.0548196E-1,1.0146345E-1,-2.5196892E-1,-9.369332E-2,-1.5419716E-2,6.11988E-2,-1.9315743E-1,-4.8717093E-2,9.971746E-2,-1.8250343E-1],"split_indices":[11,12,17,9,16,15,7,14,14,1,3,3,7,13,2,16,6,1,1,16,3,3,3,0,7,23,0,1,0,4,19,0,0,4,13,3,16,13,4,8,0,5,9,0,8,16,3,0,4,25,13,0,8,4,25,14,1,21,6,0,0,0,0,0,0,0,0,0,0,0,0,0,0,0,0,0,0,0,0,0,0,0,0,0,0,0,0,0,0,0,0,0,0,0,0,0,0,0,0,0,0,0,0,0,0,0,0,0,0,0,0],"split_type":[0,0,0,0,0,0,0,0,0,0,0,0,0,0,0,0,0,0,0,0,0,0,0,0,0,0,0,0,0,0,0,0,0,0,0,0,0,0,0,0,0,0,0,0,0,0,0,0,0,0,0,0,0,0,0,0,0,0,0,0,0,0,0,0,0,0,0,0,0,0,0,0,0,0,0,0,0,0,0,0,0,0,0,0,0,0,0,0,0,0,0,0,0,0,0,0,0,0,0,0,0,0,0,0,0,0,0,0,0,0,0],"sum_hessian":[2.8092047E4,2.4008035E4,4.0840115E3,1.8595479E4,5.4125557E3,1.7722917E3,2.3117197E3,1.2080891E4,6.514589E3,4.189865E3,1.2226903E3,4.6879974E2,1.303492E3,1.403014E3,9.0870575E2,1.8745397E3,1.0206351E4,5.741156E3,7.73433E2,1.4694354E3,2.72043E3,4.64501E2,7.5818933E2,1.1721578E2,3.5158395E2,1.2988353E3,4.6566133E0,1.3843953E3,1.861878E1,7.530942E2,1.5561154E2,1.8139421E3,6.059749E1,5.8273433E3,4.379008E3,2.2374705E3,3.503685E3,2.5739786E2,5.160351E2,1.4330801E3,3.6355404E1,2.524722E3,1.9570808E2,1.5394809E2,3.1055292E2,5.0121713E2,2.569722E2,5.918494E1,5.803084E1,3.4056622E2,1.1017714E1,5.12778E0,1.2937075E3,8.029757E2,5.8141956E2,1.5296501E1,7.377977E2,1.047176E2,5.0893936E1,1.5330295E3,2.8091266E2,1.3388623E1,4.7208866E1,5.4230454E3,4.0429752E2,4.086804E3,2.9220398E2,9.3798035E2,1.2994901E3,2.6118528E3,8.918324E2,1.3214777E1,2.4418307E2,4.5244144E2,6.359369E1,6.2496375E2,8.0811633E2,2.7916632E1,8.438773E0,2.4376125E3,8.7109406E1,5.0768784E1,1.449393E2,1.0434298E2,2.0620995E2,4.6238733E2,3.882979E1,3.2578575E1,2.2439363E2,2.1694067E1,3.7490875E1,5.120472E1,6.8261228E0,3.680154E0,3.3688608E2,9.242046E0,1.7756672E0,7.679269E1,1.2169149E3,7.7863165E2,2.4344069E1,5.964107E0,5.7545544E2,1.2675334E1,2.6211677E0,2.6828906E2,4.6950864E2,9.109085E1,1.362675E1,3.667214E1,1.4221798E1],"tree_param":{"num_deleted":"0","num_feature":"26","num_nodes":"111","size_leaf_vector":"1"}},{"base_weights":[1.9354453E-4,-9.982123E-2,6.070096E-1,-2.0138987E-3,-4.4098723E-1,8.696825E-1,4.1114616E-1,-1.0331096E-1,4.4267163E-1,-3.6179185E-1,-9.2297685E-1,4.4016665E-1,1.0286465E0,6.608421E-1,3.3002645E-2,-2.7121764E-1,2.4053805E-1,5.7096124E-1,-4.764673E-1,-4.091415E-1,4.856982E-1,-1.9347195E-1,-1.1613398E0,-2.4349283E-1,6.758208E-1,1.0415115E0,-1.9005641E-1,6.880012E-1,-1.3536343E-1,2.5295737E-1,-1.0563155E0,1.9312955E-1,-3.8502702E-1,3.6139846E-1,-4.984654E-1,-1.0983636E0,6.4574593E-1,1.731672E-1,-1.6590761E0,-2.9198363E-1,-7.944419E-1,8.1116056E-1,-1.341632E-1,-9.8003393E-1,5.76801E-1,-1.2154475E0,3.0033055E-1,-9.7160155E-1,5.52673E-1,7.7323663E-1,-1.9991156E-1,-1.1147281E-1,1.0510526E0,5.13392E-1,9.341803E-1,9.119844E-1,5.8258828E-2,-1.6532371E0,1.7548212E-1,4.331502E-2,-6.918832E-2,1.6866779E-3,-5.3819474E-2,4.5516424E-2,-4.8370343E-2,5.8132615E-2,-9.462824E-2,-2.806635E-1,-9.3131885E-3,8.7341085E-2,1.5733162E-2,-1.6215777E-1,9.722533E-2,-1.4903577E-1,-1.854735E-1,-9.0443276E-2,-2.1892458E-2,-1.28508685E-2,-9.751713E-2,1.3078408E-1,-7.640591E-2,-1.3055587E-1,7.385899E-2,1.5482885E-1,-1.21697344E-1,-1.2816776E-1,-1.425264E-2,-1.2406539E-1,2.1082175E-1,-1.6043855E-2,-2.4013625E-1,9.049099E-2,-1.7987393E-1,-3.2238463E-1,8.063327E-2,6.6011064E-2,1.0760546E-1,5.8601707E-2,-1.6126463E-1,-1.8971288E-1,9.682882E-2,-1.4051798E-1,9.923767E-2,3.6446556E-2,-6.0148794E-2,-1.8383946E-1,-4.3947916E-2,9.392097E-2,-1.7186318E-1],"categories":[],"categories_nodes":[],"categories_segments":[],"categories_sizes":[],"default_left":[0,0,0,0,0,0,0,0,0,0,0,0,0,0,0,0,0,0,0,0,0,0,0,0,0,0,0,0,0,0,0,0,0,0,0,0,0,0,0,0,0,0,0,0,0,0,0,0,0,0,0,0,0,0,0,0,0,0,0,0,0,0,0,0,0,0,0,0,0,0,0,0,0,0,0,0,0,0,0,0,0,0,0,0,0,0,0,0,0,0,0,0,0,0,0,0,0,0,0,0,0,0,0,0,0,0,0,0,0],"id":13,"left_children":[1,3,5,7,9,11,13,15,17,19,21,23,25,27,29,31,33,35,37,39,41,43,45,47,49,51,-1,53,-1,55,57,59,61,63,65,67,69,71,73,75,77,79,-1,81,83,85,87,89,91,93,-1,-1,95,97,99,101,103,105,107,-1,-1,-1,-1,-1,-1,-1,-1,-1,-1,-1,-1,-1,-1,-1,-1,-1,-1,-1,-1,-1,-1,-1,-1,-1,-1,-1,-1,-1,-1,-1,-1,-1,-1,-1,-1,-1,-1,-1,-1,-1,-1,-1,-1,-1,-1,-1,-1,-1,-1],"loss_changes":[1.6753175E3,7.907773E2,2.0059485E2,8.29741E2,2.0121863E2,1.13401245E2,2.114255E2,8.6623346E2,4.032522E2,1.822489E2,1.2923529E2,7.301546E1,4.7816406E1,7.472229E1,2.139148E2,5.32811E2,4.3987277E2,3.751535E2,3.2228555E2,1.9374701E2,1.441276E2,1.1238068E2,4.4729492E1,6.815725E1,8.9242035E1,2.6098633E1,0E0,5.675305E1,0E0,9.524239E1,1.1057843E2,4.219653E2,4.984181E2,3.3553143E2,3.353437E2,2.2122337E2,3.1914893E2,3.9084464E2,2.1444702E0,1.4731677E2,1.2039575E2,1.6121095E2,0E0,5.225624E1,1.6546852E2,3.826947E1,6.0634697E1,7.069774E1,4.8305866E1,4.565071E1,0E0,0E0,1.1085693E1,1.2156151E2,5.507367E1,3.293344E1,1.1625503E2,2.1919525E1,7.374711E1,0E0,0E0,0E0,0E0,0E0,0E0,0E0,0E0,0E0,0E0,0E0,0E0,0E0,0E0,0E0,0E0,0E0,0E0,0E0,0E0,0E0,0E0,0E0,0E0,0E0,0E0,0E0,0E0,0E0,0E0,0E0,0E0,0E0,0E0,0E0,0E0,0E0,0E0,0E0,0E0,0E0,0E0,0E0,0E0,0E0,0E0,0E0,0E0,0E0,0E0],"parents":[2147483647,0,0,1,1,2,2,3,3,4,4,5,5,6,6,7,7,8,8,9,9,10,10,11,11,12,12,13,13,14,14,15,15,16,16,17,17,18,18,19,19,20,20,21,21,22,22,23,23,24,24,25,25,27,27,29,29,30,30,31,31,32,32,33,33,34,34,35,35,36,36,37,37,38,38,39,39,40,40,41,41,43,43,44,44,45,45,46,46,47,47,48,48,49,49,52,52,53,53,54,54,55,55,56,56,57,57,58,58],"right_children":[2,4,6,8,10,12,14,16,18,20,22,24,26,28,30,32,34,36,38,40,42,44,46,48,50,52,-1,54,-1,56,58,60,62,64,66,68,70,72,74,76,78,80,-1,82,84,86,88,90,92,94,-1,-1,96,98,100,102,104,106,108,-1,-1,-1,-1,-1,-1,-1,-1,-1,-1,-1,-1,-1,-1,-1,-1,-1,-1,-1,-1,-1,-1,-1,-1,-1,-1,-1,-1,-1,-1,-1,-1,-1,-1,-1,-1,-1,-1,-1,-1,-1,-1,-1,-1,-1,-1,-1,-1,-1,-1],"split_conditions":[-1.0710549E-1,-1.4582375E-1,-3.2928094E-1,-1.2184366E-1,1.8659694E0,-3.8400832E-1,3.6382598E-1,4.978384E-2,6.9204545E-1,1.3434021E0,-1.2243414E0,-8.872048E-2,2.2028213E0,1.6972178E0,-5.146712E-1,-1.1740073E0,3.6382598E-1,-5.907776E-1,-1.2062141E-1,3.309868E-1,-3.900488E-1,2.0891298E-1,1.4037546E0,2.3025769E-1,7.141108E-1,-8.8685656E-1,-1.9005641E-1,-2.5357938E-1,-1.3536343E-1,-4.1248193E-1,6.15713E-1,8.805743E-1,-2.1799037E-1,-1.9427352E-1,-5.146712E-1,-3.8715625E-1,-2.3392646E-1,-1.1905636E-1,-2.0746817E-1,-1.1965579E0,-1.193883E0,9.0648156E-1,-1.341632E-1,9.5137924E-2,-1.9423857E-1,6.745936E-1,1.9682246E0,2.078883E0,8.805743E-1,-1.680829E0,-1.9991156E-1,-1.1147281E-1,-1.1737228E-1,1.1151582E0,-3.491469E-1,-1.23870544E-1,2.3981364E0,1.4516228E0,-4.2731962E-1,4.331502E-2,-6.918832E-2,1.6866779E-3,-5.3819474E-2,4.5516424E-2,-4.8370343E-2,5.8132615E-2,-9.462824E-2,-2.806635E-1,-9.3131885E-3,8.7341085E-2,1.5733162E-2,-1.6215777E-1,9.722533E-2,-1.4903577E-1,-1.854735E-1,-9.0443276E-2,-2.1892458E-2,-1.28508685E-2,-9.751713E-2,1.3078408E-1,-7.640591E-2,-1.3055587E-1,7.385899E-2,1.5482885E-1,-1.21697344E-1,-1.2816776E-1,-1.425264E-2,-1.2406539E-1,2.1082175E-1,-1.6043855E-2,-2.4013625E-1,9.049099E-2,-1.7987393E-1,-3.2238463E-1,8.063327E-2,6.6011064E-2,1.0760546E-1,5.8601707E-2,-1.6126463E-1,-1.8971288E-1,9.682882E-2,-1.4051798E-1,9.923767E-2,3.6446556E-2,-6.0148794E-2,-1.8383946E-1,-4.3947916E-2,9.392097E-2,-1.7186318E-1],"split_indices":[11,12,17,9,13,15,7,1,13,4,4,3,7,13,2,2,7,16,8,5,16,15,1,0,7,23,0,1,0,19,19,4,15,15,2,17,16,9,1,3,3,1,0,17,17,0,5,24,4,4,0,0,8,4,25,8,11,21,6,0,0,0,0,0,0,0,0,0,0,0,0,0,0,0,0,0,0,0,0,0,0,0,0,0,0,0,0,0,0,0,0,0,0,0,0,0,0,0,0,0,0,0,0,0,0,0,0,0,0],"split_type":[0,0,0,0,0,0,0,0,0,0,0,0,0,0,0,0,0,0,0,0,0,0,0,0,0,0,0,0,0,0,0,0,0,0,0,0,0,0,0,0,0,0,0,0,0,0,0,0,0,0,0,0,0,0,0,0,0,0,0,0,0,0,0,0,0,0,0,0,0,0,0,0,0,0,0,0,0,0,0,0,0,0,0,0,0,0,0,0,0,0,0,0,0,0,0,0,0,0,0,0,0,0,0,0,0,0,0,0,0],"sum_hessian":[2.760225E4,2.3697318E4,3.9049316E3,1.8418117E4,5.2792007E3,1.6665187E3,2.2384128E3,1.5001599E4,3.4165188E3,4.5356943E3,7.435064E2,4.5118906E2,1.2153297E3,1.347731E3,8.9068195E2,1.0079727E4,4.9218726E3,2.998394E3,4.1812473E2,4.2961816E3,2.3951248E2,1.8355421E2,5.5995215E2,1.1564795E2,3.355411E2,1.2106569E3,4.672761E0,1.3304523E3,1.727866E1,7.416883E2,1.4899364E2,1.9840436E3,8.0956826E3,4.230505E3,6.913676E2,1.2797955E2,2.8704146E3,2.7042664E2,1.4769806E2,3.2957917E3,1.0003902E3,2.0377466E2,3.5737823E1,9.068212E1,9.28721E1,5.4012634E2,1.9825802E1,6.0290653E1,5.5357296E1,3.244367E2,1.1104398E1,4.8230653E0,1.2058339E3,7.801764E2,5.5027594E2,1.683074E2,5.733809E2,1.0012941E2,4.8864235E1,1.5611588E3,4.228849E2,2.2342273E3,5.861455E3,3.808415E3,4.2208987E2,2.0258633E2,4.8878125E2,4.6746845E1,8.1232704E1,1.9572786E3,9.1313586E2,8.299371E1,1.8743292E2,8.393618E1,6.3761883E1,3.500411E2,2.9457505E3,2.1390952E2,7.864807E2,1.5505441E2,4.8720238E1,7.644333E1,1.4238791E1,6.0333195E1,3.2538906E1,5.0854025E2,3.1586102E1,1.0872332E1,8.953469E0,3.9176437E1,2.1114216E1,4.8680252E1,6.6770425E0,1.8725765E0,3.2256412E2,7.4128784E1,1.1317051E3,7.5510645E2,2.5069935E1,5.899919E0,5.44376E2,5.0909524E0,1.6321646E2,3.9192514E2,1.8145573E2,8.6429985E1,1.3699428E1,3.518243E1,1.3681802E1],"tree_param":{"num_deleted":"0","num_feature":"26","num_nodes":"109","size_leaf_vector":"1"}},{"base_weights":[1.1288165E-4,-9.1521405E-2,5.7286584E-1,-1.4700171E-2,-4.7832608E-1,1.2453711E-1,6.8694323E-1,-1.6683768E-1,2.1992828E-1,7.85194E-1,-5.1809776E-1,-7.1057636E-1,3.212953E-1,9.0745926E-1,4.0242672E-1,-7.627174E-2,-6.946347E-1,1.3582526E-1,7.5077736E-1,1.0585846E0,-1.3608845E-1,-3.826322E-1,-8.503345E-1,-1.6085299E0,-3.038936E-1,4.712228E-1,-9.330743E-1,9.419392E-1,-6.595683E-1,5.543921E-1,-2.257421E-1,-1.370948E-1,1.0290394E0,-8.8035935E-1,1.3226357E-2,6.410151E-1,3.4564532E-2,1.0212457E0,1.7668864E-1,1.3018208E0,-1.4155488E-1,-5.5645263E-1,-1.0228119E-1,1.0064055E0,-8.890237E-1,5.6823652E-2,-1.9308454E0,-4.3331616E-2,-2.1065516E0,5.066316E-1,-2.4536155E-1,4.3297055E-1,-1.1915066E0,7.49617E-1,1.0718466E0,-1.3031106E-1,9.371974E-2,8.2925403E-1,2.6482245E-1,8.261355E-2,-1.3573813E0,2.3345236E-2,-2.6716162E-2,1.3200368E-1,-1.2403393E-1,-1.8274589E-1,-7.672211E-2,3.922706E-2,-1.2490679E-1,6.712764E-2,-2.0767127E-1,-3.52347E-2,1.9169593E-2,1.086568E-1,-2.0619135E-1,-3.711402E-2,1.2708247E-1,1.4732012E-1,-1.3497193E-1,-4.2150702E-2,-1.0541388E-1,-9.5063E-2,1.3226397E-2,1.6173184E-1,-1.1525369E-1,-9.522255E-2,2.2522135E-2,-1.6145435E-1,-3.1861407E-1,-1.7948562E-1,1.8571345E-2,-1.5479523E-1,-2.9885253E-1,6.9201216E-2,-1.0231267E-2,1.14445284E-1,-1.0239299E-1,6.640215E-2,-1.3830787E-1,8.199262E-2,-1.8583217E-1,1.0847559E-1,-1.4445426E-1,4.322229E-2,9.86734E-2,3.377429E-2,-2.2739969E-1,-9.4459035E-2,9.7566225E-2,-2.1827713E-1,9.614192E-3],"categories":[],"categories_nodes":[],"categories_segments":[],"categories_sizes":[],"default_left":[0,0,0,0,0,0,0,0,0,0,0,0,0,0,0,0,0,0,0,0,0,0,0,0,0,0,0,0,0,0,0,0,0,0,0,0,0,0,0,0,0,0,0,0,0,0,0,0,0,0,0,0,0,0,0,0,0,0,0,0,0,0,0,0,0,0,0,0,0,0,0,0,0,0,0,0,0,0,0,0,0,0,0,0,0,0,0,0,0,0,0,0,0,0,0,0,0,0,0,0,0,0,0,0,0,0,0,0,0,0,0],"id":14,"left_children":[1,3,5,7,9,11,13,15,17,19,21,23,25,27,29,31,33,35,37,39,-1,41,43,45,47,49,51,53,55,57,59,61,63,65,67,69,71,73,75,77,-1,79,81,83,85,-1,87,89,91,93,-1,95,97,99,101,-1,-1,103,105,107,109,-1,-1,-1,-1,-1,-1,-1,-1,-1,-1,-1,-1,-1,-1,-1,-1,-1,-1,-1,-1,-1,-1,-1,-1,-1,-1,-1,-1,-1,-1,-1,-1,-1,-1,-1,-1,-1,-1,-1,-1,-1,-1,-1,-1,-1,-1,-1,-1,-1,-1],"loss_changes":[1.4212373E3,6.936748E2,1.9093237E2,6.953033E2,1.947876E2,1.2491081E2,1.8641895E2,5.647793E2,3.419795E2,7.093006E1,1.6847925E2,5.2462585E1,1.16061714E2,9.119824E1,1.2438591E2,6.782701E2,2.2751929E2,3.3839508E2,1.6249475E2,6.540304E1,0E0,1.2986581E2,7.887427E1,3.264601E1,4.736451E1,5.818592E1,2.380658E1,4.018811E1,3.8913338E1,8.3226746E1,8.884074E1,4.6089752E2,3.4915118E2,1.4549036E2,1.7305391E2,9.223309E1,3.3516718E2,1.456258E2,2.0230444E2,4.5923767E1,0E0,1.1007013E2,2.0340129E2,3.170684E1,7.5136475E1,0E0,1.0497513E1,3.61565E1,1.6497307E0,6.1489838E1,0E0,1.2811344E1,2.073381E1,1.2341901E2,3.3302124E1,0E0,0E0,3.31745E1,9.5560135E1,1.850948E2,6.560315E1,0E0,0E0,0E0,0E0,0E0,0E0,0E0,0E0,0E0,0E0,0E0,0E0,0E0,0E0,0E0,0E0,0E0,0E0,0E0,0E0,0E0,0E0,0E0,0E0,0E0,0E0,0E0,0E0,0E0,0E0,0E0,0E0,0E0,0E0,0E0,0E0,0E0,0E0,0E0,0E0,0E0,0E0,0E0,0E0,0E0,0E0,0E0,0E0,0E0,0E0],"parents":[2147483647,0,0,1,1,2,2,3,3,4,4,5,5,6,6,7,7,8,8,9,9,10,10,11,11,12,12,13,13,14,14,15,15,16,16,17,17,18,18,19,19,21,21,22,22,23,23,24,24,25,25,26,26,27,27,28,28,29,29,30,30,31,31,32,32,33,33,34,34,35,35,36,36,37,37,38,38,39,39,41,41,42,42,43,43,44,44,46,46,47,47,48,48,49,49,51,51,52,52,53,53,54,54,57,57,58,58,59,59,60,60],"right_children":[2,4,6,8,10,12,14,16,18,20,22,24,26,28,30,32,34,36,38,40,-1,42,44,46,48,50,52,54,56,58,60,62,64,66,68,70,72,74,76,78,-1,80,82,84,86,-1,88,90,92,94,-1,96,98,100,102,-1,-1,104,106,108,110,-1,-1,-1,-1,-1,-1,-1,-1,-1,-1,-1,-1,-1,-1,-1,-1,-1,-1,-1,-1,-1,-1,-1,-1,-1,-1,-1,-1,-1,-1,-1,-1,-1,-1,-1,-1,-1,-1,-1,-1,-1,-1,-1,-1,-1,-1,-1,-1,-1,-1],"split_conditions":[-1.0710549E-1,-1.9427352E-1,-1.1737228E-1,-1.02189E-1,-3.8715625E-1,-4.8437813E-1,3.4075564E-1,8.1672776E-1,2.078883E0,5.20526E-1,7.7715164E-1,-2.598584E-1,-3.3513796E-1,-2.1465991E-1,8.805743E-1,2.11525E0,-1.1737228E-1,-1.0643915E0,-4.2731962E-1,9.24955E-1,-1.3608845E-1,6.6501063E-1,-3.8369885E-1,-2.194695E0,1.3304431E0,-1.1069445E-1,-1.375633E0,-8.282142E-2,1.4979166E0,-2.906974E-1,1.4552869E-1,-2.7140564E-1,8.805743E-1,-3.678645E-1,-5.210789E-2,1.7807955E0,-5.037694E-1,6.038928E-1,5.943209E-1,2.4680793E-1,-1.4155488E-1,-1.7822365E-1,-3.7249777E-1,1.0809077E0,1.4037546E0,5.6823652E-2,-1.2062141E-1,-5.9667075E-1,-1.2062141E-1,-5.146712E-1,-2.4536155E-1,-1.2433617E0,-1.7729881E0,-3.528768E-1,1.9682246E0,-1.3031106E-1,9.371974E-2,-3.8400832E-1,1.7313071E0,7.132038E-2,-5.259006E-1,2.3345236E-2,-2.6716162E-2,1.3200368E-1,-1.2403393E-1,-1.8274589E-1,-7.672211E-2,3.922706E-2,-1.2490679E-1,6.712764E-2,-2.0767127E-1,-3.52347E-2,1.9169593E-2,1.086568E-1,-2.0619135E-1,-3.711402E-2,1.2708247E-1,1.4732012E-1,-1.3497193E-1,-4.2150702E-2,-1.0541388E-1,-9.5063E-2,1.3226397E-2,1.6173184E-1,-1.1525369E-1,-9.522255E-2,2.2522135E-2,-1.6145435E-1,-3.1861407E-1,-1.7948562E-1,1.8571345E-2,-1.5479523E-1,-2.9885253E-1,6.9201216E-2,-1.0231267E-2,1.14445284E-1,-1.0239299E-1,6.640215E-2,-1.3830787E-1,8.199262E-2,-1.8583217E-1,1.0847559E-1,-1.4445426E-1,4.322229E-2,9.86734E-2,3.377429E-2,-2.2739969E-1,-9.4459035E-2,9.7566225E-2,-2.1827713E-1,9.614192E-3],"split_indices":[11,15,8,1,17,1,8,6,24,6,16,14,13,14,4,7,8,14,6,4,0,4,19,25,19,9,19,9,3,17,0,17,4,17,12,16,3,0,0,0,0,4,1,13,1,0,8,4,8,2,0,4,0,16,5,0,0,15,21,0,13,0,0,0,0,0,0,0,0,0,0,0,0,0,0,0,0,0,0,0,0,0,0,0,0,0,0,0,0,0,0,0,0,0,0,0,0,0,0,0,0,0,0,0,0,0,0,0,0,0,0],"split_type":[0,0,0,0,0,0,0,0,0,0,0,0,0,0,0,0,0,0,0,0,0,0,0,0,0,0,0,0,0,0,0,0,0,0,0,0,0,0,0,0,0,0,0,0,0,0,0,0,0,0,0,0,0,0,0,0,0,0,0,0,0,0,0,0,0,0,0,0,0,0,0,0,0,0,0,0,0,0,0,0,0,0,0,0,0,0,0,0,0,0,0,0,0,0,0,0,0,0,0,0,0,0,0,0,0,0,0,0,0,0,0],"sum_hessian":[2.7077541E4,2.3343648E4,3.7338916E3,1.9476553E4,3.8670972E3,7.577998E2,2.9760918E3,1.1815468E4,7.6610835E3,1.1743762E2,3.7496597E3,1.4399998E2,6.1379987E2,1.6753857E3,1.3007059E3,1.0085942E4,1.7295262E3,6.6144106E3,1.0466727E3,1.046171E2,1.2820521E1,2.6651348E3,1.0845249E3,4.396663E1,1.00033356E2,5.488262E2,6.497366E1,1.6397056E3,3.5680206E1,1.0474309E3,2.5327504E2,9.560711E3,5.252308E2,1.3698649E3,3.5966125E2,1.1035364E3,5.5108745E3,7.109476E2,3.3572507E2,9.568407E1,8.933033E0,1.6445269E3,1.0206078E3,2.1626616E1,1.0628983E3,